0.958050059642
-0.18656866366568
-0.16218501821656
0.5602596639879
0.2425304586844
-0.9710942270153
0.7102203525512
-0.4353680791925
-0.66137071338
0.983211294203
-0.8184108398076
-0.690610549805
-0.755006628501927
0.6131373117097
0.0904462411765872
0.45121033358137
-0.995306735416
-0.8510920538
-0.988647512893
0.523370869757
0.947249055066
0.37955567229
0.3868893909729
0.5385199789891
0.61504052552
-0.577978719581
-0.9210177425024
0.2663898582003
0.9759613230333
-0.2846175439046
0.1853282908529
0.38392388696354
-0.706381365020275
-0.1267482816132393
0.16809730092926
0.2319466156831806
0.783974331965195
-0.652053549214552
-0.250834777411651
-0.685676509932456
-0.625047186450898
0.3255307855297032
0.640975449975433
0.830701270098553
0.510664717533143
0.816310168399002
0.65557383333579
-0.1575959295784551
-0.3172773835117
0.0432533358051379
0.712346286587736
-0.850062532811922
0.256540993068
0.4767110279422
0.14996666857857
0.05128866438994
0.503244706514
-0.9829347318037
0.126473117067698
-0.680460336002514
-0.1482109308952447
0.1989268431488154
-0.2480325449001404
-0.315919382344178
-0.04444507104819908
-0.00215779207848873
0.4785311061611177
0.2016813103043311
0.810506123157409
-0.890089443689833
-0.4052067032408145
-0.492158607721092
0.03217978960100613
0.532201367586569
-0.499140413575565
0.541945148232817
0.670161391242928
0.51299512205808
0.225864924556442
0.1383606290014188
-0.869896030571123
0.0760214430282794
0.52176327883
0.874919274527
0.413904931528
0.2113445676993
0.376407270413952
-0.700620520438375
-0.601638345210546
0.929503782608664
-0.349681779091664
0.411118719881832
-0.1431975685651727
-0.631432351388566
-1.12898288009968
-0.358169934807405
-1.614312800220123
-0.1715317843004624
-1.520776719832152
-0.1785510831524876
0.2330475124557936
-0.936227780944069
-0.64035506406168
-0.49872684574939
0.931841097541613
0.620358278828253
-0.2435302140537154
-0.2720875019144314
-0.676289465602544
-0.673064331517711
0.2645351955222824
0.16836413062393
-0.4411291794873
0.514907311270245
-0.16621056133823
0.463799183955491
-1.031215385929356
-0.215805250469049
0.298074096714028
-1.141477940746992
-0.976142913244517
-1.722427612842653
-1.860476850389691
-1.52865671773749
-1.115258937687093
-2.651526198710456
-1.70391914809682
-0.708422245067869
-0.727714228591709
-0.1420713985772963
-0.4721940645734614
0.716986588605848
0.6729901377896668
0.9996302993404218
1.4164999434139622
0.53457215723889
0.617683640636871
1.00703824838095
0.2327560745657242
-0.5101241536566
0.90057957176
-0.22277282215869
-0.4125607232601758
-0.362199566398113
-0.865096505972743
-1.559737219193782
-0.993159525477356
-1.8088567804365
-1.982299511804859
-1.683177921469202
-2.05655258834789
-1.967614880785384
-1.907242654712522
-0.879798412828252
-0.3413758972501489
-0.627119272387677
-0.3114314820912516
-0.1557677923759498
-0.436906527444133
0.34731009342431024
1.6995652067447649
0.8040602630162653
0.8037281220911592
1.743343059471586
0.98890904267941
-0.1226433009278333
0.59901701586199
0.1965433818716467
0.8619397664275
-0.49707873796888
-1.021721224599526
0.847456013199841
0.200091332121616
-1.667243705183364
-1.49264299960245
-2.83297359857222
-1.821476077133283
-0.843472635403195
-1.58346942695466
0.055389700651443
-0.664510702278083
-1.10526936720437
-0.495690470319954
-0.706254338162835
-0.905618825798955
-1.411099512600003
-0.12912083123787757
-0.34623945340187545
-0.20406210964253083
-0.7211794348899966
1.489818437395502
1.042293259356744
2.151042345995651
0.823352896309878
0.48489513684774
0.6036783282825
-0.09623616158922
-0.761342870830899
-1.03743099566236
-0.72287608454242
-1.29061056126631
-2.12194019875081
-2.00787678427345
-1.658774758787324
0.2744645760238032
1.068930130152681
-1.184497620169399
-0.555879811542209
-1.51802122588061
-0.02175326696244163
-0.0610747523145262
-0.92282771874808
-0.997700372516838
0.1789796426096761
-0.28347432875585266
-0.4685353374457506
-0.6555335506994611
1.1636366202490631
0.2536833580307305
2.148069363485671
1.930823096799862
0.260886435912919
-0.4614884846805593
0.00963365432298106
-0.653335990346365
-0.197065834812651
-0.767096487680677
-0.87028390551122
-1.648109536845333
-0.628946957257843
-1.392551121764075
-1.147619323319581
0.184444225880592
0.2595800979231684
-0.0301097539951142
-1.39466211078267
-0.65307494992878
-1.089676529229827
-1.192242192722596
-1.93487369153644
-0.3718326385333733
-0.24392312596064494
-0.1797091006700282
-0.0206199413010149
0.5983523276668846
0.702749348438605
1.198889607365536
0.656347873540366
1.622094638352885
1.888819143907091
1.10331000868629
-0.934242417662144
-0.826125303056257
-0.63353338267153
0.618132965671049
-0.273650772085615
-0.690070244276009
-0.3827246747728003
0.0295200624542625
1.067331147177411
-0.035718310520038
-0.309208244287121
0.768871643102947
0.905293594336137
1.425976355447018
-0.598615868771136
-2.26996357008413
-3.715077766073099
-2.0869982416201407
-2.49929451517058
-0.8556413737236277
-1.3073813740715858
0.2902406013941531
-0.2129529237484342
0.3627507278208647
0.946033354044829
1.68981102029338
1.803660823093732
-0.380020720543078
0.0757812156325714
-0.1549464296403251
0.404613688491364
-1.04647593913727
-0.823437947174319
-1.297408766676409
-0.862400922868848
0.66282301049964
1.736752260193109
0.694543042660199
2.280342895468898
1.6521587913081
3.103563435326595
1.38430909579173
1.08880356545256
-0.4762841162493708
-1.5218955366407816
-3.9686248829731787
-4.131129579221617
-2.525340837269467
-2.250953028366741
-3.819577563015905
-1.444217258351628
-1.256039609406866
-0.092302699168802
0.3805809436052648
0.574711633434626
0.4179331944897899
-0.837832730047809
-0.345391950211743
0.3319391285909822
0.728327079141973
-0.891503173696425
-1.37937087481286
-0.962344600607675
0.464243190519992
1.604813896046264
2.884602134156257
2.079239849915024
2.357920119443601
2.027007879495581
2.932374548555828
2.8626418756114678
1.3174480588878994
0.4410608998234815
-0.6967827349133697
-2.3971863634652877
-3.02533664596587
-3.341364947511579
-3.36149204184748
-2.32170689744865
-1.762554182633776
-1.859317893401681
0.2254985383994216
-0.1752696494318723
0.3571481536301599
-0.88202636108296
-0.781306340649052
0.3462857298287901
-0.721574363932168
-0.335261973517911
-1.194860181602508
0.200160384751942
1.277035090682075
2.28360842187613
2.77174758083858
0.948535610120278
1.362797610834288
1.2550779020351
1.6333614709368935
2.5420631619096463
2.906798087094535
2.0967186870620638
0.26521052911846527
0.9813258425832814
0.4714924679066301
-0.689960845553476
-1.16409126366996
-1.346375124539885
-1.259832119847081
-2.155595689730662
-0.3560758445710804
0.3149428902265606
-0.510089370193238
-0.716835871354909
0.980370243260184
-0.10665650851958
-0.529057079277876
0.722427068970372
-0.4122928362211553
0.005076754840484279
1.052946118686492
0.40487743389985
0.415827557273763
1.17008365113803
0.852978655869262
0.3204099693786053
-0.1367154667364982
1.3068475657841725
2.403936027902629
1.4106341776181073
-0.16609537529093868
0.5061966862187
0.999269187565672
2.41949842319362
0.844423792829438
-1.86404104091895
-1.916700008195933
-2.86252266177455
-1.643997075373
0.0573116317386419
-0.718258657105629
-0.3107940173794518
0.039482360579276
0.629570619496186
-0.845184772092707
-0.1384145319650783
0.328815224468022
-0.517301885975726
-1.165885250694873
-1.029125850066605
0.657553586497298
-0.086673951625766
0.818658410254164
1.0228674493239982
1.3268436956619736
1.8573268217547414
2.2982076110246625
1.7300628774004962
-0.024944296279199307
-0.704285902506958
-0.73596936338839
-0.1549536884750253
-0.53791829941896
-0.612525968173313
-1.53050183356834
-2.21386701609158
-0.8244823569721
-1.016915755634044
-0.96554694444055
-0.32530084251244
0.573657754859
0.4737326004413
0.0632213628650131
0.137087955706796
0.139475251080194
-0.51623055960907
-1.115390214568232
-1.593263932742023
-0.32739507873519
-0.1906646070410499
0.398898167320747
0.27256192589482303
0.7109481857118763
1.5959881572203385
1.213755182946247
1.3496191444248489
0.476633685968735
-0.257562187223821
-0.648131982159359
-0.674280948876104
-1.267104684444345
-1.9774053332663
-0.696207512769142
-0.520468087704742
0.4869566820530598
-0.826216039025855
0.04164629135063835
-0.164754982531977
-0.6108672044854
-0.39852580511776
0.823599093410952
-0.658602059824709
-0.841910556649717
-0.72657651114317
-1.131844751349448
-2.61411099544611
-1.43818738214438
0.1777739712282783
0.19836200207633725
0.9335351816592582
0.25260280456488643
1.2468629376421565
1.9216975969563383
1.151181795238272
-0.655741958269806
-1.604227383559292
-1.54039145392186
-1.110758906065199
-1.405503391065743
-0.31171981633196
-1.90164725975807
-1.20552273905469
-0.4744807024040485
-0.85146667290182
-1.063799315625289
0.4523779631974139
-0.8367437883775
0.3187660457478862
-0.319001677485014
-0.915283793487697
0.647476674146483
-0.135146903073391
-0.326539955095487
-0.85135663948939
-0.3058887320422542
-0.5300872075969564
0.8612933469759557
2.513415841521465
0.875553082638351
1.1198957760534152
1.00156458721887
0.73212084822593
-0.898828043321553
-1.182753110565742
-0.960902792716736
-1.25737851208497
-1.069986759047421
-0.3427259538568468
-1.264039334170121
-1.5533930693764
-0.838089539647866
0.138088400320793
-0.52190117756525
0.63357328438402
0.129282428825104
-0.0405270282901947
0.651486735043595
0.0652395854326184
0.248679051153692
-0.646845424615346
-0.936274600607733
-0.00926148072036355
-0.3006062142301108
0.15501273560574905
0.7348779468517903
0.6906158255846053
0.6883620304012872
0.876530067893329
1.260215317740548
0.3570764754677428
-1.552889519436527
-1.733693110371341
-0.593621782966668
-1.548846520184299
-0.400725713607046
-1.118027513939447
-0.374759831507955
-0.4120646629775533
-1.31160731680804
-1.404373241876333
-0.663003035383122
0.136332043072598
0.6802499510198
0.591723043712961
-0.868240802024
-0.2670644818252882
-0.996988521205665
-0.87382830253562
0.0043798224338284
-0.2730789088360258
0.9654894502581625
0.12540812989316547
0.2647026699588456
-0.38531106935758713
0.033098666620938376
1.468294090678603
0.87835244081009
-1.124594432980381
-1.34007616650833
-0.644148592341217
-0.4502925186953079
-0.483585164897496
-0.60813371727421
-1.270834652196411
-0.222510293745882
-0.516113118540309
0.126504057875907
-1.061051367026735
0.271558760848315
-0.97796347220755
-0.953964157495
0.584263847550189
0.33817863108227
-0.565649150553181
-0.709502846322059
-0.759213776115601
-0.4644707585699171
0.030956289232713805
-0.72860924190171
0.14989614245779467
0.2631446860432554
0.581103034596973
0.0834933525246739
-0.0741599784363452
0.23742739959977
-1.129870465073015
0.0914379732813452
-0.81592501495842
-0.0380618701123387
0.01120528636287412
-0.01968068149080211
-0.3244727428993678
-1.056779623662407
-0.1081595854479863
-1.18212438355059
-0.021456994331221
-0.2911995891696072
0.84399059835884
-0.1443604453751041
0.03419100976148961
0.73078797991172
-0.912541015797027
0.1404711977626683
-0.904168764651346
-1.281442236160115
0.040697445186241375
-0.4288970785814566
0.16080789699669698
0.9031886863779853
-0.12010650729597792
0.01659058553230884
0.3092732675895778
-0.1339550413570507
0.78557763041834
0.975163332817193
0.1128094181867408
-1.01683154390798
-0.66078577498976
-0.716974934151434
0.745077546075057
0.1117561814101808
-0.96568357265232
-0.580740748679991
-0.720265491188761
-0.858309809072195
0.6045241800243
-0.631168855802965
-0.981837852795382
-0.3756771635710275
-0.290886146208391
-0.697358876273482
-0.4464678293388763
-0.536112804094099
-0.8333305686261365
-0.862339922841207
-0.49630215377412457
0.43453273683214294
-0.6700874607896905
0.4490936152386625
-0.4524036096021401
0.857942935694382
-0.463150219033415
0.04602682447215479
-0.258558927130333
0.290067061948783
-0.3778446442341331
-0.998403078535564
0.2812633565753837
-0.799615699002561
0.197194072900419
0.76143050921364
-0.752240622252957
-0.1214388790788281
-0.6941329485753
-0.14721347314324
0.8838669187529
-0.98210499718819
-0.370703973464999
-0.713462303548171
0.234730971338261
-0.339765087847299
0.0310760747400523
0.652640788100351
0.7029149370677686
0.8478929463753857
-0.337423142677883
0.4373510744692188
-0.2160678489704188
0.782658066684495
0.84069257524775
0.553888705589954
0.457695145378501
0.679248023391205
-0.1438825711922939
-0.5934596825981
-0.601112589150044
-0.33501843101802
0.1127884179332892
-1.118672437897718
-0.708331135182309
0.401699288262972
0.8487691296777
0.8976420753018
-0.5832961627215
-0.4693446440568862
-0.0174176437358181
0.0334898558422984
-0.550551446717828
0.375879006660584
-0.00528681748474504
-0.816917173221404
0.1680546652533727
0.0756863054471483
-0.536722215577467
-0.39092725519456
-0.61150068021554
-0.0840451610120568
-0.332834646901975
0.1777764868279534
0.87841891657124
0.509961612171254
-0.13022501944246
0.4145079404411771
0.501299019798384
0.924142963549137
-0.695375403911467
0.710291014751174
-0.849001914834789
-0.415785971079138
0.7239569487094
-0.7392688640173
-0.5892298642951
0.290558112772256
0.01828091136574896
0.1515136015367619
0.4618191455113276
-0.977026709760303
-0.3983573220325759
-1.02714821813916
0.135543439260045
-1.259278662984366
-0.95596966785708
-0.797335098330533
-0.542260895303326
0.0759106689939747
0.384986111591215
1.05855355098797
0.19936779265359
-0.057461695709004
0.0645277950029982
-0.235266300161376
-0.0607134758894384
0.1066055058659302
-0.3909957168276073
0.714861204680287
-0.759593231150898
0.786706591068471
0.7279509091096
-0.427473759106
0.1045097523997
-0.030437929395
0.06123702436041
0.4351542751907981
-0.271608092576742
-0.798924130570607
0.0504049434843567
-0.560833413801593
-0.838264922945223
-1.071150109446091
-0.4994896823649278
-0.1938030250068529
-1.282834010713523
0.1544740780695058
-0.18772128094236
-0.458089559996286
0.781044602228133
-0.3657345258638459
-0.0612928044782069
0.837434145203144
0.676018604685194
0.149392444293719
0.0925937879871162
0.0533296672200525
-0.461502893803354
0.518130423485
0.10771683782287
-0.6683176219522
0.671366064866
-0.34483629352113
0.48294297693384
0.07646541003906
0.1965447656342274
0.0519977238673662
-0.249999650858744
-0.0852778766687334
-0.973032176694509
-0.516638197992529
-0.3404574437196195
0.519223617695858
-0.1025960755840536
-0.1095422353936364
-0.517319018274624
0.3315413887135096
-0.2759871903340976
-0.507756258856731
-0.590405846227651
-0.516964395234245
-0.4470745684369828
-0.1930971557258064
-0.761637439822365
-0.2965109789049
-0.9839206852971
0.0517134129746
-0.0031322048314823
-0.9981499229872942
-0.5943373139098
0.42652992711427
-0.8874961627526
0.9703568318
0.27569806309495
-0.22627153847459
-0.3905638100643
-0.2871889523423
-0.2745549494667
0.3581858691512
0.08501972154386
0.046375910884201
0.2454998498847598
0.0496631700440887
0.00574753747563539
-0.47801731689
-0.9483534129433
-0.4643195603461
0.2046488745199
0.6538566812228
-0.7873578904162
-0.3868301991357
0.3362118436079
-0.2095101732592
0.66478417561
-0.5770027232934
-0.77365187231
0.1835825129232
-0.995918510519
-0.00483349338117
-0.15832550845884
0.19197440713669
0.427233655553974
0.9740591585775
-0.4953997893526
-0.4312752140265278
-0.1432363878529441
0.808177848863263
0.241600501103343
-0.2297180607949941
0.2442328405028499
0.342937568878765
0.917504460170306
-0.7945447261918
-0.4949148730720391
-0.913921712665073
0.652296698803357
-0.501500105916981
0.1165131988244908
-0.516814706260912
0.409106983313186
-0.330614900466091
-0.594677433383
0.7657880217077
0.15867105413849
0.8814768545168
0.575727235832
0.2591729817442
0.0096447090886106
-0.916698860272936
0.2764842289085645
0.76598881092123
0.975919251453839
0.95991708913739
0.601725968417996
0.0448626453264793
-0.832191072565757
0.796727923663945
-0.4948362773431626
-0.484030915092738
0.656276522505045
-1.055439225369686
-0.159612624710266
0.4598842471292365
-0.2656754782069068
-0.0721151696493275
0.814435935171945
-0.1917059174740154
-0.518076936640905
0.536500156787524
-0.564509038362537
-0.711713005186192
-0.3885114127701
0.3676454097859
0.22473939624285
0.5888970625353
-0.6203891452609
0.886490633551357
0.358489277451941
-0.903786009737026
-0.826658284278049
0.846424882038097
-0.1024269766931574
-0.72044892556522
-0.907063834557154
-0.898162087014601
-0.4660139933390038
0.609460332176929
-0.852624645991187
0.0236904964976945
-0.55434443721524
-1.215802135714895
-1.88997275948966
-1.409152197332579
-0.943245169349028
-0.82139736160891
-0.2945126812685
0.756403193234709
0.315978981700159
0.2416917575155434
-0.515193548710641
-0.9236734294555
0.47676596226182
0.29837824208142
-0.80281654649133
0.359926246662516
-0.1031372067565865
-0.289624021702486
-0.831934208325464
0.910081988096411
0.506276977058876
-0.828976408826704
-0.562477904463969
0.422273364481074
-0.592711820242686
-0.84541523166845
-0.95197588610936
-0.00404263856089859
-0.1372085685699363
-0.963055165173807
-0.312911730948713
-1.27429105434068
0.04540649157389599
-1.134705672970482
-0.5338990880246425
0.3608559698977335
0.377461704913801
0.4537006157096939
-0.57631777449925
-0.4394624006713
-0.35664532681439
0.37154527968726
-0.2329980845795903
0.924177480367771
0.93383391929245
-0.717010673144792
-0.664624822672704
-0.547234603447336
-0.536740766767961
-0.929852856101369
-0.705201529446363
-0.16664151623934
-0.2224298451931738
1.655119216738686
1.2774557250348
-0.5084114196558
-1.640568753475587
-1.375026587688
-0.602405794305276
-1.0572190220969844
-1.6131039052265697
0.15691419053452973
-1.2669732700925942
-1.840793561159859
-0.820324108602905
-0.1453153575273067
0.401390815849551
-0.3083680110602129
-0.99167487443
-0.3899264902801
-0.60823195163201
-0.4903913915527
-0.511101971741629
-0.1082102733712811
-0.318774108579699
-1.117051934362946
-0.737270997285127
-0.432078503567299
-0.589090483341051
1.58300242032936
1.534387336776182
1.260092520721348
3.069986858189008
4.053188305464689
2.5980045959884
1.73854203678129
1.560743281500558
2.073455367551894
-0.19394153196565017
0.34272267020285957
-1.3315194815206812
-0.899031107245374
-1.628696379077246
-0.562856315701845
0.0624928754743782
-0.169900976921266
-0.924089272872
-0.6494907911295
-0.76482948488417
0.73339128984013
0.737018184207951
-0.761025052044508
-0.718962287439706
-0.368827536455545
0.00509100794896179
1.50309622654409
0.80691762875158
3.12720487513479
3.499149842470041
3.588740878058964
3.2376630742177
5.664337768586487
5.4190118471651
4.1078341441497
2.627389448403028
2.264657861387293
1.9138316183256385
0.45399072374894633
-0.1047888888643679
-1.066500370334908
-0.956705988870703
-1.018427394754348
-0.1214402091371151
0.0341867058165927
0.76129583380544
-0.462224749966692
-0.146288141282054
-0.0873303291916326
1.100033179875839
-0.899469165790259
0.135898670096152
0.0895733053377845
-0.797740341844007
0.601101245839639
2.005236636629167
1.668112104408824
3.166533005310561
3.424542448062657
3.82980360939961
4.53851117314989
3.0719535174314387
2.004588221457151
2.031420674930347
2.1378790401270353
0.9619725225742076
0.445601427736076
-0.3746493740501521
-1.061439096544636
-0.893091097075797
-0.230260165401249
0.320327648787327
0.478549513648289
-0.654963160114293
0.4820860305315159
-0.2111426090169137
-0.448692660911242
0.224736445832175
0.0771054055469582
0.939546728315275
0.1004763079371969
0.559021108035284
1.878465642827452
1.595336207394196
1.100501416580478
2.45242270414516
2.252584186080039
4.49085838745531
3.3340128287029627
1.2921094873612256
0.11586585093051835
0.501852120234188
1.3653777411736263
-0.177192920679707
-0.064854823134401
0.736358597327697
1.24236164235926
0.4453603402292543
-0.403931875039889
0.00174907196075672
0.182248627565204
-0.572420415925044
0.87095428136297
0.736211260170757
0.1655551897044969
0.1586862398091313
0.498171840001614
0.881410314118209
1.091215801139936
2.14090117971425
1.019079092318722
0.83372878208993
1.172419510813396
-0.129407778402669
1.985806960528335
2.4453163964398166
1.231322419002583
-0.472278090924181
-0.4368592053831191
0.1281225628156876
0.6322827142917309
0.673885686688769
1.824881651423229
1.364407368385025
0.259341116447917
1.040657613159702
-0.644494379087563
0.369163635005286
-0.620848367931237
0.691949586691294
-0.1277690894773413
-0.296194859760644
-0.601624800153483
1.068676086423595
1.437086003561255
1.7389364063379
2.716981603683999
1.670260507633574
0.677442716168001
-0.511101560924561
2.036210540593597
-0.2397385636131509
1.9800200802455583
1.691999169808594
0.715740050530187
-0.688082258474529
1.1649313982757106
1.870817623126875
1.41226323192924
0.969338669605112
2.72761164743236
1.143345634554
1.631513235866149
1.573618219749385
0.588022084790526
0.980542748226369
-0.425949250256946
-0.673265934664
-0.338579663230335
0.36469673367013
0.1511442692364201
1.509691961924098
0.796733698205136
1.16578762044508
0.862919735665174
-0.219659305380547
-0.1874232051484435
-1.159344054211739
-2.368823482598071
-3.408896709953808
-0.8101096071940876
0.13618867187086173
-0.3589218992508031
-1.0305921353356184
0.43227135361875796
0.6524484536756
2.00642527314494
0.854166111247929
0.4542745787154215
1.338953389174159
1.595597691648501
-0.595063557582868
0.881412446991866
0.730150214252978
-0.0940487328164
0.209473720010192
0.96556221946421
-0.654812288837441
1.01635571409653
1.216951258086632
-0.0983033550573514
-1.506626740198653
-0.668419546859978
-2.4918607258598
-1.23278997156496
-2.14607568859723
-4.23520377869368
-4.616864257168827
-1.0424318663485028
0.8810386771277731
-0.620373667440907
-1.3596694689197877
-0.162803235796418
0.340337894220034
2.15406649362241
0.037701307394625
0.275816140259295
0.4072935755687222
-0.953198346240788
-0.00868777701777623
0.597696346950246
-0.711401061158849
-0.00770837383022306
-0.4848117517465
0.159320756531836
0.817124700759595
0.2329602135324235
0.1228195696058215
-0.815353838540977
-1.342662069636124
-2.970753602076212
-1.91614551977372
-2.2340305438792
-1.719530235527803
-4.962383619960801
-4.0684073780955385
-0.769243423933593
0.18584380646894413
0.6674809139646997
-0.6444498076671118
-1.12919170088234
-2.406584114705759
-1.386450502146599
-0.713944613781066
0.2780681771656458
0.38175759398
0.0536616888047975
0.1928288848867804
-0.616226805397648
-0.65163678193923
-0.930685981818387
-0.794494659171
-0.3791946423263
-0.537568651733387
0.1431610236359582
-1.528423378519836
-1.814685630768258
-1.597804992901343
-1.340660011739487
-2.43783334208876
-2.70740233181537
-1.30655191116539
-1.7617800104028674
-1.7757916470448758
-1.4973078156853
-2.2889576338733475
-0.8297107401846558
-1.098272743896489
0.3442295494988127
-0.472680998885161
-2.000619405620625
0.2292769537532517
-0.00348081447511894
-0.649163069579359
-2.14243455596837
0.2513320281269242
0.495424450802941
0.4417389292183357
0.464243470689261
-0.601858132765
-0.165300719264522
0.045069357950566
0.273262445186557
0.1687629244854138
-1.59942298048126
-0.872856956744171
-3.415901506453281
-1.845274879097582
-1.623431991696427
-1.7040114449185315
-1.0360879782941912
-1.6481059256408348
-1.6969114676162704
-3.402929686412721
-2.4151984843723
-2.073313062424112
-1.594426426802913
-1.761365680392365
-0.839830338301953
-1.898844301869104
-1.651907258063844
-1.7789705567573
-1.399681456353578
0.2605978360830756
-1.018581575880384
-0.583641254377659
0.742664704225746
0.616785624014
0.622152712919067
0.3705934950343965
0.65147942882889
-0.312190161778277
-0.595376885660991
-1.775452782376621
-0.4949255940205777
-0.667581876284937
0.25605494830255143
-0.4728537109859311
0.26687789500428505
0.015556771330298822
-1.2496478830706024
-4.26666746337062
-2.48435014824238
-1.940812281424639
-0.770831538926067
-0.2484659257737252
-0.545020044258536
-0.613433243582938
-0.889309946919136
-1.31871919311112
-1.364787589234166
-1.2775948074267
-0.74492142573292
-0.951711028029197
0.62677710153971
-0.41863659346982
-0.769876152950729
0.432091321291456
0.1609569448087839
-1.1504712671004
0.04173865270815496
0.522192529091334
0.659231834086914
0.504273347950697
0.021046518263093346
0.8783020528109601
-0.5919558789459369
-2.5920960943014455
-1.896478462110947
-2.78040818736918
-0.581241565285508
-2.32322981419723
-0.193694572180362
-0.826036029673435
1.172511670051601
-0.648793523044511
-0.801496127376932
0.57479033676911
-1.381715896718311
-0.921974070237539
-1.056630625780259
0.2279532136310483
-0.668452512620172
-0.5159935434006
0.812834469457759
0.1534167366426274
0.4513788778160827
0.827440488126881
0.946483104289382
-0.406757908119872
-0.00279965585222518
0.8299602045801501
0.3021778316382916
-1.7576789479257928
-1.7443785430160548
-1.4821548357977101
-0.346364040581588
-1.041051311571004
-0.835045483032316
-0.91469699765425
-0.250805561207025
0.133507125733347
-0.02202074029563432
-1.203331302270813
0.1573149130815108
0.789267657190513
-1.732112153049283
-1.93966479942758
0.08362840719653
0.259021739216276
-0.2893482805619521
-0.907651021865
-0.1827891525785682
0.723879372692853
-0.140457610048861
0.67909255901715
0.4290590584845578
0.4875339626616548
-0.36003464202782587
0.06830730850484529
-1.202434246641845
-1.268957386954319
-2.358629477257805
-1.219649375705138
0.02297101616879637
-0.393892448987478
-0.593224627657357
-1.48051507057562
-0.363507692346096
-1.856554052455256
0.99685664745519
0.736590385372515
0.2438203595138036
0.4314725897296262
0.1893364708714875
-0.443739667952333
0.724721487938755
0.767417946548738
-0.41920592384023
0.589143969512176
0.622999842155822
-0.397905096662643
0.3024045096121822
0.800677468174125
-0.1651446756301179
0.835562234564434
0.5595750754081406
1.324918579029441
0.9819364707062921
-0.18617524551784306
-1.1814969915157105
-0.465139036725941
-1.218238506196792
-0.568382899531156
-0.959736288803373
0.319176836414792
-0.0879747514210257
-0.96640909094331
-0.165510196558784
0.02887962778116085
0.682545611173962
-0.2700402470962715
0.56382569643725
0.638398119133499
-0.656577816134157
0.901448618121311
-0.2297309587784984
-0.1946261742449577
-0.1423560615448341
-0.864854698677603
0.1794072446604107
-0.587871581407163
0.484779933241517
1.64843297744044
1.0347011863554012
1.736266114238552
2.565636316669703
0.6418840698424254
0.877542968986134
1.40411079351665
0.389037929525051
-0.65638809456076
-0.374219672908045
0.789063771355823
0.6667199731917
-1.303565813115808
-0.958423663760821
1.087468683790704
0.869447957137999
0.075057900660658
-0.796470915632029
-0.682499369588801
0.536926857231822
-0.64692653229211
-0.719761375931287
-0.731311473977
-0.14649799811467
-0.48594323815607
0.86968549056775
-0.02889538687985933
-0.67405085966734
0.87568272971732
1.791475548922908
1.1761383876879357
1.7550815279006151
2.9537571983210493
2.28091855600116
2.746672839692969
1.491481223053514
1.014315245172525
0.741253583950565
1.002871026862583
0.1454859456172429
0.781046462728519
0.2853529653359321
-0.430713276178055
1.40825970118314
0.0634356223787575
1.166970288162115
0.1816924229178907
0.335744687373621
-0.727261311518918
-0.12511680199103
0.06307428756396
0.11045253720928
-0.02951337242241014
1.012787707650967
0.703514516112173
-0.104054252066103
1.458555590263118
1.495110008315948
0.87495148927411
1.360856929569263
1.916883999760683
0.717968181389464
0.798650713260158
0.246142921460525
0.420034891821791
0.633718203266748
0.524722358714144
1.42401341066287
2.138956923794539
0.927451818147438
1.014296296276084
2.422089402605015
0.1784506236633602
0.2387650852769764
-0.4619105678883631
-0.775094057222365
-0.4641411693938875
0.379054438108
0.3731195117032
-0.5526551798712
-0.218129954997596
-0.47327117061394
0.506609345960061
0.27223366503365
0.630455819623231
0.968443528009739
0.3109733843613133
1.670805016367302
2.297175244364384
1.568449737680596
2.226830249114102
1.557216298367627
1.53115852947841
1.962236542061294
3.094596009277637
2.46735160677145
2.28509856916067
1.671773831095041
2.273792274970366
0.397306104690894
-0.364342596443417
0.88615027079707
1.0525330548142
-0.661360122556737
-0.35887594967936
0.6577931485211
-0.22208813224629
-0.633794193016
-0.42473104955
-0.636855116984
0.235933907323581
0.2898863243199062
-0.200140546178258
-0.63027037009426
1.326697529972531
1.210595922968779
0.848848013443077
0.934709904051804
0.598698437531127
0.03632846209845616
2.1138790603667
1.32493112900488
1.165130694962191
0.915363775016484
2.292428729244045
0.1423190526543946
-0.553298003934736
-0.2681892749589264
-0.4193442578650964
0.839974370695416
0.448653074350983
0.32724852408041
-0.8793054666121
-0.32839850889006
0.4512978290103
-0.2843078726727
0.811997841796
-0.934334401915
0.7453034393123
0.2171250007178302
1.0259910863206
-0.597045385548517
0.4559694571158458
-0.452389845542337
-0.63601309159837
-0.500714438661556
-0.526256075482878
0.651939840326295
0.381072630153668
0.567114339574673
0.01195184897131482
-0.64516243086615
0.679833696375559
-0.452260007468723
0.0900575107110516
0.65170722729105
-0.698814186790363
-0.2291440907987209
-0.2636027893254
-0.8600592249895
0.14516581698374
-0.818409316581
-0.3428049967749912
-0.3704989793201
-0.391855217236
0.824526589359
-0.689527151201
0.1513591882282
-0.7429131428458
0.17805419299286
-0.19750252091708
-0.0493292546976
0.8759834153084
0.1624831418684
-0.25866387375
-0.4435886162914026
-0.958056077995324
0.4563645921735398
-0.2838480232362458
-0.5474182262943
-0.09276347303618
0.31463803229
0.8730018934089
-0.43894493673
0.9381219208316
0.464539713585
0.7541397933342
-0.5955904419569
0.933912427992
-0.7578131681722
-0.36735600407478
-0.4452182860155
0.2898531534589
-0.669444085784
-0.9128760702471
0.0939068797571319
-0.2652683927848315
0.40746639292862
0.588239932806706
0.1812041762719015
0.1150896787399618
0.6271572754553
0.521087425419795
-0.395963048708836
0.560987589008348
-0.1206531387401772
0.1219502326224494
0.0199774232196115
0.6287223611579
-0.165460921355261
-0.1462285812534727
-0.806567847363039
-0.0756194433379172
-0.231142657715218
0.682336091637739
-0.3123409832407
-0.9440607101281
0.0625454373554
-0.24128960288758
-0.23221305191672
-0.8312213596
0.7603187897157
0.710828207131409
-0.02464416241553492
-0.1922766150291201
0.802492899422913
0.1534152731416267
0.418799632234118
0.252264191672763
0.184272346778547
-1.053884873199234
-0.259776160014198
0.71593718045015
-1.490077646176866
-1.30353522977208
-0.1571914484568558
-1.100302783830082
-0.331265813619533
-0.590277045096859
-0.8734614204179
-0.941760575578908
-0.1090626718144099
-0.91229270031754
-0.1869935293871995
0.815463954437349
0.7666024106739
-0.6116562483279
-0.72839933151
0.6114682087771
0.4274051782433178
-0.646585855352093
-0.953098326143513
-0.4410710845076603
-0.3327358820644698
0.524350632919723
0.1217348881194749
0.96656461555478
-0.527533744249248
-0.595931642147651
0.393141222511417
-0.552933748424496
0.3476399224588299
-0.460603090460316
0.10048475019911
-0.36009602546045
-1.623952426173685
-0.49184155389918
-0.572767071703115
0.01542799140713102
0.340825177311618
-0.922835529280346
0.1422067366075389
0.428625762813268
0.982656781171698
0.785928658269
0.7317201981973
-0.660056644210002
-0.382619791096018
-0.2446745148592815
0.0704508494705764
-0.0713540786846767
0.770115533095581
-0.1114140951687295
0.1213463638328868
0.620289307959763
1.46684482620412
-0.164150090379327
0.279044745646231
1.758802723399891
1.157988911606697
0.448426751619307
1.31585889380543
0.3713508079033557
-1.023460802980218
-0.940744880633455
-0.5985118293369893
-1.25881163778418
-1.1866507024175026
-0.404911773287699
-0.944270725373027
0.2188264844232104
-0.4369172015008745
-0.20142466135005
-0.1130328239092
-0.7017057619
-0.895393260958566
0.314803798962381
-0.55277930504702
-0.00433953025535705
-0.63051667848921
0.311582142131189
-0.03263591823065644
0.809598031020515
0.571273240535768
0.490221257023283
0.927777684263022
0.3195845890631347
0.4580760486695456
1.188291163926579
1.360466663795757
0.02992623253303976
0.2623205756402916
-1.204403139703838
0.4462238852393712
0.04799462840081188
0.25638653422660523
-0.887776061826243
-0.873380815958619
0.622965549455993
-0.298092009828483
-0.447348425599362
0.6102150022789
-0.8357175840044
0.597006198859217
-0.633707343536942
0.635571684784474
-0.691496429805686
0.292465377062104
0.872496105261203
0.541527231012528
0.1384191835893975
0.89041979151984
0.931467201074132
0.607317730209267
-0.2578362628900875
0.4094917423024332
-0.1360703252209599
0.422946105392001
-1.115595258860406
-1.4295930173542573
0.5363982380469701
0.8089826627760917
-0.25757889924832184
-0.3592619107408289
-1.29001944016951
0.474944873802391
0.797815245018671
0.649620992145205
0.0532618540993879
0.3985150157896
0.386533427257025
1.02535009851251
-0.4655521718998
0.257877802618702
0.377125744395724
0.883023980841792
1.463043137354682
0.4310225359368274
2.01353565512056
0.533258086632992
0.899405639289422
0.1178084724209866
-0.323417728744376
0.379028423763219
0.0229748011927459
-1.341490184576172
-0.3200209309782471
-0.33987938435839016
0.8101291774264787
0.13733124556543183
-0.0042678417123709084
1.332760453074905
-0.2045852423944469
0.857820644367624
0.882853591801392
0.685985207521949
0.740564438938059
-0.53456745144512
0.800720422472454
-0.755187925803441
0.704416409105271
-0.3918194121858858
-0.2258981316587185
0.062108439244775
0.1329507708396646
0.2674849928216087
1.17712847903199
0.4388725171165833
0.615779444020979
0.280711421048101
0.626403104876973
0.361506618515483
0.235518480761495
-0.9950186883765285
0.3966843384002531
-0.03065662723944164
0.7482935553275964
1.2065457456622812
0.93496092568774
0.511160385464006
-0.031707911408688
0.3076660041342386
-0.518122386023423
0.3993756901546501
-0.683004998924175
0.551839379230119
-0.802434711202064
0.8690492578826
0.1783242789365582
1.489954594309668
1.550883442003353
0.638271906981496
0.279589943557896
0.718633649481873
0.339571103599571
0.4360425578214424
1.054803130681119
0.62887976092329
1.41439215258527
1.304597142298357
1.5788867242099387
0.6859735457283334
1.8718963498665835
0.8407673521052786
0.5369153270333356
0.631776631362511
-0.1956575564669032
0.1881379133911515
-0.274899095022208
0.0749613231926669
0.1919228448976799
1.0539565546267
-0.420758119189391
-0.69163448984288
-0.920332830027835
0.746565591512723
1.095017093107765
0.831107833788778
0.4043814203278073
-0.701445253846561
0.0669062531545108
-0.538423444336387
-0.482448518933367
-0.622346594317811
-1.25434613913358
-0.650426544292155
-1.097714428368529
0.7703671030305892
1.3789125892045706
0.8922178609701757
1.1060559611291856
1.1359661780569856
0.47171331873718203
-0.1934555122415135
0.432065429785937
-0.0345477879528946
-0.05569150438174113
-0.0480810668004428
0.4797179576577161
0.20961179163195
0.0009716228099902
0.04337350034844328
-0.643144265696154
-0.511921034903729
-0.2899026109911604
-1.086178705797229
-1.183375869344632
-1.313936759138885
-1.739214487394821
-2.826865981614353
-2.10874860794161
-3.4686241224054
-3.072156974546386
-3.636482082767728
-2.9770028582723773
-0.1574828659485873
0.5170673413909946
-0.9223902711703613
-0.3070902742591016
-1.670915995104608
-0.1575754468883748
-0.825303785559004
-1.184427215551732
-1.68037677943756
-0.677713924476323
-0.338729095453141
0.3210839201011576
0.651072953240751
0.277378042596746
0.172107351677434
0.921933744871458
0.666818527834255
-0.704524830713055
-2.276286492887433
-2.89560530128236
-3.93573419422128
-3.789846082932349
-3.83200022127344
-3.98166613742536
-4.70154837395983
-3.674447964513822
-5.142797836832222
-3.358643216401431
-2.3202185928947636
-1.1641361996559263
-1.358063562320315
-1.2237929120450641
-0.668285115432056
-0.52656718537436
0.67594220020099
-0.4617365031737601
-0.2598752325205398
-1.407712291150962
0.2001922695716378
-0.461816537700949
0.308735272073709
-0.947431072728769
-0.4926544457326612
0.2390664579122838
0.826631763193212
-0.093888071626695
-1.261925154652368
-3.743342766911738
-4.5242203134546
-4.545075520260116
-5.14115047897123
-3.567487680387077
-1.952889311258833
-2.05704613692915
-1.8818809195127848
-0.6230299027831343
0.6914891461907087
-0.7672865126744853
-0.9754809495051204
-0.25116169904196
-0.2639831151511372
-1.284867324299256
-0.886382082443398
-0.757805353439206
-1.955246885615043
-1.513647832228874
-1.405800582941542
-0.83886743417059
0.415649975615853
0.00930073126084688
-0.558567448099
-0.283242167828461
-0.812986763333131
-1.139407280859584
-1.261712418828773
-3.69645736953941
-2.547279414816594
-2.943009128299723
-0.969296685323712
-0.2491580747356452
0.02996006361665653
0.07097437605931761
0.6371789272786859
1.3558149407775646
1.2973467794581406
-0.339900631636261
-1.165913236629088
-0.488063658097685
-0.149373314620647
-0.258851578806224
0.05140171524882991
-0.54223078690077
-0.74075560454808
-2.34693238342125
0.1119642147344622
0.303781489625985
0.878653229569937
-0.0649378840173905
0.52702667228
0.5437732843212
0.765552979504499
-0.931537879201474
-0.824573003673651
-1.322763742888287
-1.19617968573424
-0.472514510495103
0.508052356738993
0.577071354245257
1.001991290750165
-0.2651124112355087
0.8310128459812047
1.7992547383586215
1.2472855815027566
0.8740657293041318
0.0163576274294806
-0.4534465797164472
-0.1523145008121269
-0.3676851544187732
-0.612647452292424
-0.9409372434408
-1.295277978670513
-0.966839274093026
-0.669970384625256
0.73539070959503
-0.57900100863073
-0.723961350143743
0.4492910929204
-0.359311029121501
-0.773812463929636
0.587842819562527
0.434234364915698
0.907892241624274
1.115962971974848
0.013551590609811
-0.6270771407199
-0.1084702804342549
0.1179398822994232
-0.3219887705689966
0.17475798988868757
1.336354540463474
0.8513728598798231
0.3024590217241937
0.3571342655140357
-0.1318714301252153
-0.3393645886332759
-0.708817955362772
-0.843264629092943
-0.0547553169014506
-0.3497082541542746
-0.718528097341241
1.211120697351153
0.4504116719691018
0.31749963534881
-0.44986504050645
0.07307743142225
-0.258014083572785
-0.1316392798364025
1.142991283299714
0.660479208942369
0.882376605903052
1.277697558160985
0.86317936364189
-0.0675033465458662
0.046700059994346454
0.19662863437604333
-0.08860079921136653
-0.26240919108530647
0.16566790817332425
0.814696891819242
1.05469185978545
-0.079265539931093
-0.466020651817164
0.4927940100800914
-0.447749591691874
0.424698100922753
-0.185860472333682
1.036475900408766
0.2001451221011307
1.395010683477808
1.59766781532359
-0.4974127222699478
0.02602779323978879
-0.178973949949468
0.2446599836647
-0.0252042740642235
0.766456534177184
1.2783109652245
1.38608516087463
2.264267812816031
0.193244288795495
0.814082573111279
-0.20666656762518656
-0.4162264445747464
-0.25347588195803583
1.410237402235325
2.14582897441487
2.539366617182543
1.575422521072672
1.17619040716237
-0.76498451542057
-0.669442870696061
-1.12436451748848
-0.760715670783032
-0.462710939784143
0.64598144448437
0.0743263590165917
1.780029164216835
0.864393465185746
0.197215534488721
0.13217731459253
-0.0470009717098
-0.01375174816468798
-0.612892763736501
-0.1648085883984877
0.34741915507196
0.554748254206958
0.375368089408299
0.54885722209695
1.2795835158513247
1.049083536934309
1.7209304781141155
0.5240851814285264
0.445963420194096
2.293357265832751
0.84927422303462
1.144894494149784
0.244257738244485
0.520298380716354
-0.930704926496109
0.146093295758614
-0.67352372990854
0.874436106465527
0.796767149544528
1.941258609792469
1.284463609587914
0.781768344487646
0.831344633934152
0.350950398213768
0.8022556036228
-0.428265034968594
0.755401682811691
-0.2014378676817286
0.29769768652631
1.39029368710675
-0.313805213802164
0.31292148916830914
0.5630647169614346
0.6994728309148577
0.2969162093926089
0.6144674324180006
0.3732400928014884
-1.32346819483451
-0.583063113981231
-0.927170112948892
0.876270776494874
-0.747302905352217
0.0964152371106453
-0.631240632136874
-0.3850230452902929
0.585738875790785
0.925360534782759
2.20315320328165
2.06265812567964
-0.0821869298730675
-0.370845473219966
0.873549046688225
-0.267692231222288
0.66546519149101
-0.79778048822162
0.558073899656671
0.553608787413167
-0.702000830172686
-0.0860107376346454
-0.6690409443308966
0.8098667564163747
-0.03189156560976602
0.05878818314272299
0.13262323386219627
-0.0747613101436
-0.1342805259244689
-0.5135703667574
-0.4444164011032739
-0.41937478040947
0.00309208950329975
-0.191483064625127
0.1439895553404837
1.046028783385451
0.250808116447288
1.55441048102206
1.170538551425738
0.975911929717845
-0.3319807758487941
-0.3835179006711228
-0.901084128186246
0.550069503553151
-0.280533921776154
0.501918831345413
0.3522724939423446
0.672216870016063
0.3990113345982405
0.673386565441693
0.9381851068737698
0.17723048619444043
0.2440251516597106
0.8344396002586332
-0.22317603278372616
-0.259142055441041
-0.2592151902896976
-1.13489105111894
-0.928152117737848
0.01567499587054555
-0.42707276782742
-0.478303152503522
-0.43513972385139
0.752437632362552
-0.736511023950911
0.969740353447116
-0.1135802341439693
0.818211062777613
-0.605739892784771
-0.790072403886272
0.998157721731009
0.8526028731901
0.8659992912879
0.979761506457675
0.4123055668585857
0.038770323515853
0.691789734710107
-0.2829610889494426
-0.3831181726814631
-0.8271811974336221
-0.23452768517844746
-0.5023517448777015
-0.996702426635242
-0.908077383306422
-1.422012458684911
-0.731528166115441
0.51768014819508
-0.4441375406606845
0.1516287460308474
0.741055711962216
0.695666593489317
-0.530675686590125
0.260177034390819
0.01989975517156403
0.1706299319437105
0.1583658322127127
-0.0271142239107028
0.973291666648542
0.8677311376629
0.64586515849
0.8233339886411
-0.88467051308339
-0.665440972502401
-0.611876627632945
-0.800892085947755
0.072345976954829
-0.4151134245827
-0.989084932137487
-0.995843000871148
-0.850464574118877
-0.1200785833592768
-0.3123422826513415
-0.61433005325203
0.0837489750634147
0.280240112104829
-0.750538464222424
-0.4690852140154656
-0.82283208234252
-0.38182695232946
-1.00381091542879
-1.123408351964815
0.3442810507964779
-1.08255618653803
-0.561189276893844
0.1231866404610597
0.607440404510556
0.462470026957
-0.467873972337
0.6906466666352
0.754623554109299
0.2004802088318085
0.344531492824318
-0.4033301327613821
-0.79918901958306
-0.675945157388413
0.0380799431116839
0.641881268281837
-0.2198964979310321
0.462908012472012
0.3291537208799877
-0.619178234179807
-0.422050663928527
-0.1602868006322288
-0.183273749171744
0.121265991492448
-1.291051170343482
-0.798910821252036
-1.336554447124009
-0.4066437906097853
0.348826591343966
0.0272934477551815
0.109590813937452
-0.366392456549159
-0.4951312300621112
-0.643703404718
0.9735514968927
-0.9548445619073
-0.645029942886
-0.40718032252795
-0.638656478052694
0.530687293370823
0.3973103979012483
0.434264431010039
-0.0447657493231322
0.19053690838975
1.044572547001623
-0.20281662135087
0.3207581961779436
-1.05544276028549
0.673280873499015
-0.142012593625014
-0.0224432713409181
-0.482529394135482
0.638944281932378
-0.0793093499750592
0.201339239611194
-0.452585051796395
-0.993339177544424
0.177798957552168
0.1520978571452177
-0.558809638056858
0.8405681412967
-0.747719173363
-0.6514309892157
-0.3509651294369
-0.49746111886124
-0.49059366672174
0.09206445770954
0.3320630391322379
-0.2088583724793583
-0.128706703841255
-0.607725458785304
0.3923144685294908
0.420946023578219
0.381834159848071
0.701367551068243
1.019043155699694
-0.3883565709377424
-0.933397183577833
0.873247583735465
0.381609140908
0.929283474449466
-0.698372261189869
0.786859687587365
-1.080824197050522
0.1899200075830719
-0.3201961279143286
0.2125719178948
-0.218141282831
0.250178481552
-0.27869259868973
-2.4637886586522795
0.190805057258
-0.1044847480618
0.3168960677666
-0.29805776429271
0.17542078745332
-0.759661256323
-0.40196122963
0.20620617643
-0.8377213263393
0.440894324993
-0.8283192907801
-0.48820426454724
0.928409467138161
0.4863093034940821
-0.332279389510675
0.996339207565213
-0.15480395953627
0.30708643351808
0.003829806756883
0.7145088976533
-0.300489283594
0.6875123060876
-0.5457167662539
-0.34128170119579
0.10310184785017
0.0567694614595
-0.6181191199792
0.30606605235104
-0.5599037883779
0.4969202415084
0.6161689694726
-0.25355904557892
0.70281531275991
0.6728525330749
-0.455196522325116
-0.39026382211617
-0.2269662156591627
-0.740980243953083
0.942555941532257
-0.285341961605412
0.03492707440405181
0.677050635848138
-0.657590218445837
0.402981454651813
-0.667048546475053
0.1972502505457418
0.3789854325862284
0.992650578578864
-0.500335181645408
0.864602332120638
0.31882488242296
0.1129143418526
-0.10197643131986
-0.9192462419892
0.7211701232112
0.01806119349996
0.32445682204526
0.443436169855
-0.8279694375014
0.604009607687
0.747321904055696
-0.2075931901019989
0.05624644037153299
-0.79260858885372
0.682946025172937
0.3251761267614942
0.900690931938357
-0.783393261512988
-0.070547860273498
0.455764578597945
-0.000692228462932234
0.620402733043381
-0.0544161847978142
0.939189794330025
0.17787045815986
-0.400665556780643
0.713595288752287
-0.647140285895335
-0.0222527039780998
-0.60398106433533
-0.1571957240400356
-0.785859235825629
-0.56395223423
0.479430576363
0.8625657504046
-0.58235754656
0.4347944889368976
0.0797657943018229
0.0487299042413465
-0.565796103826222
0.990306772846903
0.029844461255272
-0.178886716618647
0.4026972073460872
0.847295014323197
0.509302330022587
0.825226273993266
1.421370396611717
0.891349494125727
1.19668261964952
-0.801388039336331
-0.486227690851177
-0.612076117679899
-0.938281320863464
0.42731948376693
-0.934093632510761
-0.1483955621093177
-0.1669687501903555
0.1975802541276267
-0.4868818638760095
-0.348635898601922
-0.225330006768
0.6408519845138
-0.33561303078498
0.0497549186520136
0.1387750810665584
0.0379050920283229
0.1937705416941161
0.41903631084326
0.0299084962773923
1.570421561692718
1.04833655492061
1.347901200942543
2.0245787973925
2.180860886012701
0.827530091647768
2.047367024178327
0.28490558218363
-0.676200720327438
-1.5847745405466
0.3362492139180975
0.3783034678747844
-0.6781612090081662
-0.6510215654162614
-1.2008628020729843
-0.537441219367061
0.044576438748891
-0.00592725759195088
-0.2176309148382843
0.8256561392681
-0.589086580916
-0.5400507004898
-0.848282637923449
0.856881160251829
0.0156832561145047
0.711188512853955
0.4650507465473029
1.308461455774338
1.11569443914191
0.485800910908658
0.4203684129234996
-0.1354538315728623
-1.412689011799725
0.773846368357432
1.02653765286755
0.202766913298223
1.142929616826452
-0.577535607928043
-0.101073466204855
-0.9456559568692295
-0.654184174355693
-0.2290431286364524
-1.303169624192765
-1.69530350406487
-1.147848421126707
-0.3134246938345523
-0.1629568315015684
0.32993422626159
-0.14592788438719
-0.752022419515
-0.4224469155711176
0.63138214384415
0.4856187091515437
1.12399027206613
0.52952609515659
0.79953968929982
0.1940469495692882
-0.4162964869742233
0.699139093391931
0.769402897779203
-0.4373474537509956
0.57577752613891
0.68685505876539
-0.574768281846889
-0.582371560057395
0.1033108422551738
0.4861039264259446
-0.4704980753748489
0.3877944923805293
-0.6405021945445308
-1.6101132696647549
-2.30151074661876
-0.207199988796674
-0.1465015467069276
-0.437850726858175
-0.378448497474734
-0.23511557650913
-0.165812362421171
-0.0539505820254245
-0.363517811625923
0.718075399196817
1.766909988346844
0.844425250690133
-0.1789067893549472
0.2244594341070728
-0.682849389119942
0.383172566101547
0.487679955873435
0.87800151686506
1.054424079401047
-0.00459238042622556
1.019535239729
-0.202876276057104
0.16023641764249388
0.38952669070925433
0.1463673184577572
-1.2885887439205828
-1.8460936500249279
-3.0172587301502
-1.863072920425746
-1.645186704680375
0.579734464720316
-0.586237092748949
0.0806190901365657
0.51635854796494
-0.01228527780121808
-0.939392423545339
0.96490342587903
0.666959448009769
0.0861650062499023
0.59295603621747
0.3543701660270165
-0.849674694373263
-1.063975368605824
0.03141093122197851
-0.356977169906154
0.2339470984624851
0.1864184729319795
1.674125519743737
1.209134714723404
0.1016785818230698
0.9717344539720612
0.4748158639779336
-0.689655245225324
-1.0247554287769758
-0.223230431678749
-0.555517812343417
-2.53685726217446
-0.4102598612112867
-0.0166067070713263
0.52122178922555
-0.194717821429842
0.302853312282289
-0.78654647071336
0.797824490430478
-0.2857894617269301
0.798212559257943
1.04480423408931
0.03185980093483649
-0.556268601697779
-0.663810633832654
-2.059843289337359
-0.841428762522351
-2.404800698295419
-2.959260183596841
-1.037212762759663
1.08126269817736
1.9925106965039336
1.792544343576701
-0.42917015428272803
0.39243465844790965
0.003113607527581304
-0.4772641864838536
-0.2293590319086814
-2.475839278118818
-2.275494074287434
-1.17857054841274
0.2225265077295043
0.1178422768580964
-0.301754057708662
-0.931505694328993
-0.1542496838948868
0.777552350703985
0.0049443222085492
-0.0935322992754991
-0.835106735630115
-2.04830892450209
-2.3520756410848
-2.86555167582784
-3.922708579831646
-3.82839199844629
-3.99859893987806
-1.815720653310073
-0.378073956605818
1.922156585372369
2.2947384424322284
0.8104069994065577
-0.5438921064115763
1.3296501796851872
1.2690161059365528
0.1256270068849611
-1.31382225606388
-1.08217578006667
-1.192211940056731
-0.284300029613855
-0.521349355532999
-0.286163965130648
0.728344885504939
-0.659385439221761
0.883240013080126
-0.312612896532157
0.1395497137177507
-0.62873878561836
-1.215322595377818
-2.4479507352618
-2.5463960809297
-2.682950489297
-3.623920269629633
-2.737658755281918
-1.64378395765648
-1.187683452393062
-0.6721153508123447
1.0243396320300038
2.6599335909492425
0.12263720029584087
-0.21921737652303377
0.769881160697309
1.351318084198388
0.121260862211259
-1.571237232075534
-1.412927938518532
-1.7118986438442
-0.271180081135469
0.0907972490125307
-0.922190349847966
-0.786299726664685
0.4398898521454601
-0.85881242358979
-0.060012172763732
-0.8270433597217
0.0897220688977845
-1.705682803961509
-2.79393224233528
-3.053019417016871
-2.11761542871948
-0.976391277040351
-1.452799826031423
-2.54769326377265
-0.06447614493948263
0.314493386244616
2.1435776113033866
0.8609774993539336
0.8337729088544716
-0.9916681683587693
0.1280634427888086
0.406202832598661
-0.361812922528143
-1.604895553796206
-1.591291156818445
-0.570632757487429
-0.374134770233901
0.940267649655348
-0.924260256289481
-0.02784522021639278
-0.0478333698219116
-0.60119791691165
0.08402925733634
0.2660435972015212
-1.329576650831587
-2.03277715405619
-2.384633809971065
-2.048305600893093
0.624520727520491
-0.871765523866747
-1.057890790172259
-2.345719598335259
0.5634061354625619
1.0666070705096427
2.0343748652807867
0.049210323506750205
0.843111984867485
-0.901018981746389
0.738763454516753
-0.46098459320405
-0.720837810933489
-2.229172580210652
-1.153938845868726
-1.63364645535157
0.4803690500620249
0.457858534544274
0.0522823508847033
-0.0030508513830117
-0.7366976025438
0.849635407976947
0.480577946252581
0.230150947248772
-0.557140849206815
-2.000177737135237
-0.879792065468798
-2.041241757164803
-1.466316303279086
0.309880768412501
-0.7391157404284
-0.8351033814135955
0.8060205446845492
1.1833947709750436
2.3744282013447626
0.7218498686328239
-0.7644290864044916
0.825643052271574
-0.73272262259984
0.0855470470159024
0.0314224300898042
0.235164434438031
-1.490638910221449
-2.00777562671495
0.180670835683725
0.3165254995894325
-0.4257127170595862
-0.526220006413888
0.9099527216448
-0.41901544604409
0.2048433555921333
0.148565968655764
-0.471187237409162
-0.0906009508561519
-1.247551346053771
-1.353459038541785
-0.771840972462177
-0.582335922641656
-0.455578954781791
-0.09864958559020692
0.031149684956412276
2.4200372450887766
2.1463998363201457
0.4024022950442664
-0.74060651959635
-0.672349339162392
-0.2614905349982322
-0.543566805591108
-0.515942004069898
-0.523795280446034
-0.85228498866337
-0.711631548651913
-0.2015306551307635
0.316262987929052
-0.91378928034033
-0.856272206281536
-0.39969600725509
0.30457427236165
-0.1234675764510042
-0.467004611453085
0.2840605012938846
-0.2433179428436256
-0.4958255212105051
0.3154221053028139
-1.7562734027823
-2.476374950430461
-1.1860297862107445
-0.6011254452175574
-0.5650703200845423
-0.018198425563712244
0.6884920043026961
-1.55460869368516
-1.897342762903096
-0.77515606027716
0.306833810890676
-0.4172556646510735
0.425687300208536
0.1674447637658704
0.969202099886557
1.211933086987415
0.210153168843421
1.004022514853461
0.1359017366899
0.448413469208184
-0.7075370198195
0.359800113445624
-0.38410408245449
-0.03894476521703843
-0.4267886900379873
-0.761973879336752
0.609954818517955
0.1709045851426991
-1.70850772328048
-3.551167934928449
-4.3335503010313685
-4.309646596850662
-4.668316775646049
-1.659435984067349
-2.007073297873805
-1.4777434073041
-0.625410869458454
-0.69542299058691
1.465935680912536
0.466403759813951
0.723973223297022
0.1367211636525523
-0.1065787342250972
0.694208885672824
-0.1845738476229982
0.2318167905657565
-0.61317847318172
-0.496370148693229
-0.1845390431614083
0.57664240648358
0.98696934666748
1.24259978042377
0.629665419928538
-0.013238461649632
-1.064377658870527
-1.11889689898246
-1.377396765286024
-2.6387934504789317
-2.4518552138096186
-3.2759632216799153
-3.7123486501528324
-1.205518480923189
-0.70217660014505
-1.01700199088855
0.739910575637039
-0.052124457716339
0.664994530882904
1.75751702979964
0.673883082411743
1.962123390909336
1.262239761186836
0.90369024916722
0.634604441198981
-0.599605587348183
-0.510432061069286
0.45608518816431
0.19286656508684
-0.366642929192936
0.714640224304033
1.093847849907415
1.036487215632859
-0.325593170496509
-0.646361982698154
0.03169960256887842
-0.9978973361262389
0.32135362769788867
-1.1024540513010603
-1.1734872223530899
-0.48586779260914587
0.0473534512119134
-0.313595184880798
1.079176245489416
0.336739093791893
1.26617149479956
1.92662612482068
2.08380727341544
1.736656578330442
1.736555896148263
1.030039784027776
0.743892423099487
0.22369539272109
-0.704558498836008
0.635707621374623
-0.4514872499828263
-0.0422632456719
0.86075029007156
-0.595884902835887
1.37951279198626
1.158031251662386
1.04797607484681
1.140098136928477
0.8443766692286518
-0.9518930877404628
-0.018880733901935825
0.1573812715429323
0.4641492000003429
-0.772404056575483
-1.391967751675364
-0.166858120210375
0.606815909318023
1.841224473055204
1.002252719985155
1.418543981601218
1.08457769284188
1.279923664606967
0.66421533570415
1.333039967172087
-0.309542510978361
0.575025080351834
-0.504713041426055
0.850235145351595
-0.2111410884996868
-0.3252068056151512
0.611634316762793
-0.0769193326084701
1.721084618419259
2.479363349161015
1.394232077925505
0.633006279256066
0.5073895615120758
0.6873357636210568
0.30076967794540366
0.6165660985705367
-0.12361068062062038
-0.558766712135828
0.755167777455218
0.4163068457912485
0.916945260477671
0.4661057236266693
0.79961898002078
1.2241612797373
-0.512465314329942
0.669781930804919
-0.739429553862524
-0.2150952439070675
0.719508059120504
0.3970594723139597
-0.318258813851151
0.260667084814541
-0.01960299777458186
0.634960877128203
0.5108923711978
-0.512939588714117
-0.2496028314797764
2.035758764579135
1.113652691689115
0.665526534311089
-0.032472288762253256
0.21730879430710562
1.1014163602977256
0.40935908092982387
-0.756481669539239
-0.0656155011686802
-2.192562081794265
-1.034793334419364
-0.0328103325960969
-0.5942287098764
0.914755864285735
0.464529791307765
-0.4198417192268028
0.1967604391414806
-0.209967273327723
-0.1287683048165916
0.2397566967921353
-0.1429662859565362
0.670108654626735
0.656719926776844
-0.0612512076096786
0.35136026487049
-0.7858019171446
0.302372180201392
1.459590465499994
1.212175240736191
1.97226350077678
1.088019811653765
0.509042534197588
1.2619369595889776
0.4509798053565353
0.9552239073353938
-0.305240437574667
-0.502589763165021
-0.767787382215666
-1.033713842245385
-0.693961993777213
-0.580797588473626
0.2081605126916421
0.827885217860317
0.1915480619976563
-1.813641126028033
-0.76582413292062
-0.355144304747889
-0.405149744658867
-0.0093359217325675
0.705029825875975
-0.2516941540858716
-0.89844041115
0.5803385600395
0.3803127222774
-0.088272841526403
0.821821868761156
1.237660705049185
0.960988094852179
0.893659750315628
-0.1511373490742826
1.135170609967774
0.232666747316278
1.057974066577599
0.6002821092773
0.0906713769474115
0.0908969860686359
0.34549662215683
-0.530374148807913
-0.659791852697155
0.1091952079877358
-1.217643812489239
-1.839190311172676
-0.99017975641882
-0.91279870508036
-0.11979783188221
0.1632964176877106
0.759402607594234
0.849626003663828
0.3999544733533293
-0.8793724092661
-0.8035600570873
0.9473269207441
-0.510475661285057
-0.621463415444892
-0.647228126736298
-0.461620057608315
0.72547646815195
-0.436081170825396
-0.2807462491066337
-0.164468338681243
0.967189853777093
0.889672053067246
0.1010972035619472
-1.087567408038291
-0.58903877954952
-1.348633256772409
-1.248878374443853
-0.4644196157794897
-0.1147893355567649
-0.712909992513573
0.005613519202890244
0.2429021596930234
-0.948165410054458
0.1748543547355369
0.91362068707575
-0.2277793425591441
0.605117825034841
-0.5821044635662
0.8964467767545
0.3536599743483
0.634153025451
-0.4580604231718
0.28863101324391
0.0677408328144642
-0.0988477445532609
0.4622587036608824
-0.664441325890869
-1.03981588776452
-0.51164380323845
0.0537022943676832
-1.35686369871595
-0.759969028118039
-1.167219608569093
-1.003603431103154
0.587195660866356
-0.478506723170836
-0.61794366362098
-0.861218165361615
-0.956965565605144
-0.51073564570398
-0.92053358201048
0.496048870670628
0.00895751888173761
0.414065992402
0.3961451627915
0.960129494352
-0.414328690865
-0.8807342077074
-0.45077496711627
-0.8372267073409
0.903053100761
0.9340957007
0.2210612441684129
-0.20461198174855
0.419391793621497
-0.153366043865574
-0.374856991336071
-0.3909596300343083
0.845363832000175
0.4852719504275615
0.605036827771922
0.510741464671357
-0.794574358113511
0.504229181443027
0.903942934169126
0.282558527587388
0.418187389517068
-0.397009585922187
0.2782244369623768
0.692177524132
-0.509882964947
-0.18367794429949
0.9714531878301
0.00236625952037
-3.940076369710038
-0.3940654091864
0.5124235016481
0.265267229291
-0.583727062857
-0.954015156955
-0.02641456759403
-0.26366239463087
-0.02950435351165
-0.3489252564167
0.28914411763409
0.27226102056586
0.1467097661037
0.4605243353593
0.644960797355585
0.13821324571819
0.46495657786792
-0.8096736004687
0.9681547655633
0.7984302292514
0.2042628644654
-0.05131964617646
-0.09038586768721
0.7527819563566
-0.916628060649
0.7792534565792
0.7576400805229
0.5277863589764
0.67837817769
-0.8784604655067
0.2983790101167
-0.40347150549289
-0.824320980828
0.03503468682322105
-0.4034455382115298
-0.55068994883863
0.2924031939526232
-0.9857117284349
0.0308321363875964
0.0833522269987375
0.375805143856469
0.213184733180242
0.896652683721083
0.4691294831165775
-0.998642637293086
-0.1570905065580895
-0.1086631512417072
0.0734922987496135
-0.51981626850706
-0.390499124612242
-0.809403481376294
-0.632380863362021
0.327178768905385
-0.2018868331771
0.1169377031396
0.4036119668523
-0.9596505254322
0.6855997842808
-0.4240486139855
-0.498176038318
0.8305151102645
0.577298618847452
-0.159396766014018
0.886742808388246
0.88187925207696
0.1989375927296725
-0.423463970338495
0.0708448623690002
0.204297436700674
-0.882097408694063
-0.624591414262263
0.303472457309111
0.994857777371056
0.02583471076610276
-0.791634857061902
-0.063627360370734
0.573754307419616
-0.351794959433795
-0.4222571883877405
0.310660217513666
-0.828790903598473
0.788139546220809
-0.173688684526518
-0.9296372169836
0.41236707448311
-0.48343524750627
0.29653436537631
-0.59486326105578
-0.989563401670799
0.609690614130758
-0.959594297348882
-0.32858851668059
0.1847422863005727
-0.233198886072185
0.528407444981831
0.508182452456997
0.3557983332926628
1.157607851952395
-0.02752591175864368
-0.05997617559597677
0.1191697336301418
0.477754062091639
0.4091915731643875
1.60840508745142
1.070439757512095
0.62841716298679
0.57575542339917
0.25856615665139
0.3078693335777798
0.77847875166319
0.257586112567145
0.1658201066467161
0.197003671689
0.6308364513695
0.83271006348121
0.398715989930638
0.67442117142716
-0.3355717959048658
0.546416545349467
0.08907912193462
-0.02433343085790496
-0.6820348161427
0.654705059833423
0.1675030599788224
0.679005597307338
-0.411006391816182
0.59655711596879
0.4615060757247046
-0.124863358505142
-0.4108869038844555
1.278009996743827
0.0697177318777194
0.673462426326153
-0.048163418985462926
-0.8034518397745081
0.3187262676235564
0.330470089952549
-0.516305115198898
-0.1170077088219146
-0.749958433209716
-0.3430775522185
-0.3002522473698
0.4399375319531
0.792179297354943
-0.00784618982085983
0.0651811507718561
0.881314206154698
-0.689498089962779
-0.09573268608804
0.584368648882267
-0.255639885605987
-0.4095018448259385
-0.566944476779366
-0.0737360271345162
-0.3690281410349397
-0.642638157390059
-0.926982263781327
-0.1358126344263864
0.73191761668241
0.915023189661744
-0.8369833707602322
-0.20347507242336396
-0.06808897594023534
-1.171462035297121
-1.020662101911726
-0.804855995608841
0.0380536878950778
-0.918187527253679
-0.26456228310806
-0.910981296094
0.44517225028996
-0.85348351530135
0.2234595325070143
-1.014775524579591
-0.0635128003048318
0.86135979057489
1.171617542091392
1.28646235233658
1.401663285614782
0.861212901663299
0.596231284646722
0.3053966299758436
0.982871850831136
0.1826595489649061
1.298305390649034
1.440408482093507
1.81493530253795
0.20729708170532576
0.5907949177968564
0.41576207003394766
-0.6395349624957957
0.05247185706008093
0.633255377664615
-0.1180130978146709
0.4070410554360847
-0.3159925797148253
-0.00281149655796965
0.45313344319
-0.2663554186045316
0.830747652536982
-0.2891952824215876
0.457481763125517
1.1573565589428
-0.0378478953266544
0.781985915066517
0.949594992420269
2.560898310699708
0.515041957669892
0.926433522997872
-0.1833352893750373
0.401311997744802
1.20288485954048
0.611688860233628
1.15700230395744
0.02060653553322493
0.47263148884604883
0.13106003914573458
0.009021947242401579
-0.025572873522807748
0.1305483021751667
-0.03555929370238173
0.336411647043192
-0.108520801276404
0.995406879649652
0.2385724040433709
-0.0460547357695625
-0.155570322133619
-0.939110774659276
-0.436789901687867
-0.761657644590344
0.4279667356003068
0.1747764413509385
1.434204282008954
0.911657454262013
2.01338124868064
1.732110874425169
1.086061953921383
-0.106667032346614
0.560258438679362
0.72973479489273
0.0302798079230578
0.7200691539268647
0.3486909527652337
0.46010773782533465
0.7627112755599461
0.2911796587292895
0.9809393566643
1.49265388065503
0.57726909663162
1.233734550495572
-0.2309419657520688
-0.875861111808955
0.68010053963884
-0.481087266346914
-0.296175097471257
-0.338162921776508
0.962877791159783
-0.3018141200604706
0.3992830526175792
1.246387896032467
0.911896603464745
0.46949537077579
1.690345428697395
0.58243858642209
-0.0741152611070203
1.59488617278343
0.02232743094973202
-0.58522375727288
-1.4552941379655602
-1.0121702349603598
0.7568776710307027
0.9944923237128946
0.9243585717862405
1.63289625875606
0.909115428655801
1.965341079635514
1.50089583408234
-0.3697940611726454
0.655969850073858
-0.639875135144252
0.0316346865281126
0.604806979107819
-0.468197044165189
0.433749337212915
-0.663766822887561
0.915909906582705
-0.4012594678442575
0.490572838813022
0.335243601978913
0.364302465752278
1.075257278564012
1.270788376277657
-0.464681792526125
-0.478281171520485
-0.1219658171333806
-0.7716285469331932
-1.0960479368946319
-1.2130680383992585
0.112999446806904
0.5575782004405444
-0.028860557910170757
0.587062625049219
1.705825922862365
0.0522715733778108
0.310556018536697
1.078291322762319
-0.4185998302822871
0.848350248375125
0.855812266244195
0.74533310021009
-0.789128451102505
-0.32236290687266
0.1624089428899025
0.72195533451953
0.710067246820172
-0.371052538467561
0.93549081553096
1.22328438719734
1.66768010437125
2.41871027712289
0.854109105528109
0.621147538640633
-0.9512264927156583
-1.5694437855415009
-1.8420744681686088
-1.4486819894854857
0.5867700680053752
0.412752041477291
0.585550800223132
-0.1061533992675616
0.732400310026704
-0.126636994894307
0.815574624011514
-0.240563840800818
-0.1945109629405232
-0.719440386297272
0.66767126493703
0.763773648698999
-0.2462059555164651
-0.960253547335579
-0.05285157699735714
-0.559253485246847
1.018093726020632
0.71359379764729
-0.222122062450242
-0.0894586004942108
0.02259018488527921
1.815344387524677
1.02192992102057
0.1743788451213729
-0.43699210511757214
-1.8688764647179477
-1.08568010089023
-0.3107039437458758
-0.32045180469912743
0.56981450513135
1.577887917292287
0.558465374982316
0.242496850404182
0.001558270803380557
0.2384387845229905
0.274627426973713
-0.687263564818328
0.905338146462519
0.343360320969385
-0.584146353815534
-0.896895261737621
0.3241047941795064
0.3592119961255398
-0.2215397614080297
-0.512603290281749
-0.3216727270683414
0.903620232774737
0.447360963421025
1.616503320984461
0.947839231386615
1.837993813213827
-0.14362917771328804
0.19756841194426228
-1.3656251295971855
-0.46538562548023976
-1.4619166769630796
0.298236128246616
0.0847354507314876
0.513834404345175
1.22949896656627
-0.1255278885868644
-0.1072964043152509
-0.273107808623212
1.140300206170242
0.0611450833156541
0.499501791939971
0.718608910089321
0.28374524274582
0.4088205366616231
0.812975974192875
-0.567905148617778
-0.608276522710579
0.1927703089537083
-0.101270889765
-0.01427159995670099
0.1614890501057844
0.859799694416748
0.598737446996329
0.8935775932649268
-0.8503178698367057
-0.9956542088862016
-1.037372142688531
-0.4870010785923979
-0.2974296019756065
0.285984247628607
1.450683424892735
1.603518774892029
0.799012473194046
0.356641947145836
0.718876405100291
0.863408681958988
-0.708297274841776
-0.937196529816825
-0.4811583713989176
0.30817764198341
0.47948827513406
-0.4059817776294
0.786909372262766
0.096917253731145
-0.4603052708519055
1.209326671965337
-0.3158327203027
0.4792739112531711
0.1948911819194778
1.831545432055635
0.632347786592781
1.252007591922121
-0.18263453837896512
-0.4660898645131573
-0.242098110589
-0.40111004378231946
-0.1419154925435915
1.52073961058821
0.797604115148605
1.822955060151094
-0.0388267568134807
-0.602557368111484
-0.0332972525841479
0.53501238422243
0.647631074343088
-0.0950299932575875
0.596978134165129
0.065349533831232
-0.8167082135232
-0.920996948690293
0.47760862536056
0.126584213798879
0.4243728400078685
0.861752253532699
0.956377097215404
1.156109362255361
1.20676189729968
1.37003445408152
0.3349123468230726
-0.2213357507617543
0.03138819281866966
-1.8340146633367045
-1.423611747916586
0.589723173641707
1.088544865890208
1.514264490929237
1.670539839274724
1.480795493210138
-0.105702914102209
1.028563513546952
0.4534365349802
1.004423947261669
-0.253435773453492
-0.48262548731069
0.81068814168966
-0.655885175630767
0.52369114185
0.891611472556422
0.596672084013
-0.4595386271922821
0.819624685137779
0.0273495343084825
1.201997157193589
0.980050571935002
1.083067236818688
-0.09318287950051225
0.29108837263792386
-0.21175818858957962
-0.8411615134953865
-1.759903334630328
-0.698527017678785
1.45600500296841
1.516623282920137
1.245394112993155
1.43470097136982
1.274358424380439
0.53297910916713
1.043072310288787
-0.56864017815085
0.1410530128129042
-0.474642466572708
0.328986733157205
0.2098360897668878
-0.05038625617841467
-0.68245909701557
-0.440919890691317
-0.1158952443789667
0.0808822729009008
0.1659926909773232
0.3287129758402357
1.3294448948425
0.970810409310125
-0.259333935090939
1.0435568017180872
-0.04090923474917144
0.31819179797787644
-0.2292975530577833
-1.25585494697567
-0.42563768766339
1.30842462790966
0.949518446729312
1.28425762570185
0.280695839777966
1.126427597331611
0.382825908058024
0.523288090617127
0.860863990219524
-0.26990416442556
-0.593788035695483
-0.182876175614351
-1.159113002968025
-0.0388693350615011
0.5450757383406
-0.05695624692104886
0.354267034191463
-0.03611425751318248
0.0577312221116345
-0.1983408945072773
0.876652375342533
1.344383027924097
1.0979933552544634
1.1737729195909743
0.4089098620085235
-0.6917061014145177
-0.40528324873240656
-0.64284044029576
-0.4083823517377777
0.602891352590588
0.4717321516682983
-0.2129953366395339
1.190909370695978
0.1674517269457366
-0.3624232157666158
1.252116082014698
1.263452191087071
1.17477780970942
0.748665214356534
0.487996627471849
0.413005112271117
-0.3083680191381348
0.590533040939
0.980620588046481
-0.1108036583366916
-0.927528661891913
-0.680854786688031
0.99928259710006
0.141189199603084
-0.3644562618903563
0.04020142785020763
0.17725445161076567
-0.2901299626496883
-0.06767552624783135
0.757540316608962
0.21853686473635
0.3430651153910334
0.3798459234304784
0.61049393841883
-0.86164997664193
-0.0088822632397533
0.1276843900664084
-0.1144178456724203
1.689315148088768
1.60803335284018
0.927275246943289
-0.02194593428842494
0.866745428223419
-0.045233776121544
0.76728471175881
0.862796263392027
-0.829630883306884
0.1315981270188117
0.2102896188186843
-0.1944597306261439
-0.560769932714706
0.0351945005964366
0.5986821168634424
0.09440689947767406
0.7282011844050766
-0.36149007616574724
-0.3794407724225546
0.685638914914407
0.135902478281838
-0.647953084232786
-0.333812666148919
-0.805041316762959
-0.01419910260884052
-0.32750229132733
1.24682168980222
0.3603425960421169
1.077236678371009
0.893351275662405
0.373335634337156
-0.347393027939638
-0.471853494748986
0.81063986558034
-0.2721805762279
-0.913046043613792
-0.429978663655487
-0.733808379616126
0.2638675484902851
-0.387803687864569
-1.194024431324895
-1.541712661288336
-0.27571935807388576
0.5855773173173953
0.17114810460622917
0.8499827466221427
1.7259715129087663
2.027596669115691
0.4993948303896623
0.1333444436533553
-0.822577581238526
-1.09437635078658
-1.15153395507236
-1.581500520981131
0.2197863352760734
1.45786760662485
0.723387020379723
1.19273807134436
-0.787184111632868
-0.4332875206816934
-0.2838028539780133
0.390836841517226
-0.7190547306208
0.5426132208488
0.763639599223
0.0368268478737432
-0.1213426787501216
0.830633567316045
-0.2141433297210927
-1.767808775952087
-0.63675345057371
-0.7353341200663064
-0.45236078575040334
0.49273282202052304
-0.4048821490825612
0.578249609181
1.21172508781713
0.683900091429004
0.274622994927537
-1.307285701620442
-1.678937412699403
-0.3100343097252189
-0.53429208483922
0.836284101271479
-0.1239512449019404
-0.144916387607498
0.271446988663947
-0.63025110279921
0.339579668835739
0.4342795601376901
-0.0528263776087
0.4300930476926
-0.8317493212439
-0.363298245587927
-0.541013501547826
0.657398382013158
0.55639182974906
0.338169522306985
-0.2795787492868067
0.2906697861284369
1.210647373044578
1.651490090593984
1.690883321777342
1.187603624600711
1.982948401729731
2.07338474977209
0.835174616959511
1.802458825536305
0.658934283871928
0.928188002047216
0.3962413911740303
0.860284873225876
-0.2344551965379434
0.915073794410353
-0.955533033730648
0.3205391043484278
-0.285785040230978
-0.1566233385778987
-0.12139321670064
-0.6494106390697
-0.555174410808
-0.759511047320854
0.4023697513251038
-0.0663370724130947
-0.331366721169991
1.069041413764228
0.362904076004441
1.226682018092373
0.67956754189571
0.740502733489773
0.3897975073128781
0.435198792844206
0.2867015237949977
1.454763101320908
0.662323149496229
0.1048481193757788
0.1514815230495577
1.05489124244537
-0.600559987386377
-0.1784989049480495
-0.266689487118008
-0.518732755300551
0.504441112718822
-0.1002479559446657
0.334425954702197
-0.4093598963870599
-0.25248772723996
0.411397969743
0.46938183805
-0.6063126460185
-0.14860729833522
-0.3043349781675207
0.74035496509025
0.4780590865886959
-0.3033809336357813
-0.04927363340290817
-0.653344668560344
0.276584701311612
0.834986437821743
1.155688155564729
-0.384869387046826
-0.101213786506912
0.273933296709852
0.936527609336286
-0.59860227744425
0.63973861547304
-0.4088510113047682
-0.367908756353711
-0.4667386470267509
-0.935922395070423
0.956972978507565
0.03109748295332437
0.366378126141952
-0.5785995762388
-0.8621569682596
0.8812327307473
0.901958934062
-0.204211553415
-0.4662870468732
0.2720440574858
0.9549789627186
-0.137988669396714
-0.445411452547837
0.51015653355623
0.745318039971081
0.881759723030803
0.75155877490534
0.863780375902447
-0.905943174186079
0.667404524868007
-0.418749956669224
-0.734270268703086
0.864755495999665
-0.642849085075737
-0.878646576096666
0.231972280889164
-0.635438508538458
0.876616596819
0.4776619141280411
0.2833468780343
0.8160626306346
0.981849848456
0.571267037987
2.775214588568973
0.6746127420839
0.9042284330561
-0.20492297028312
0.09951080046788
0.2166666627327
0.8843000169264
0.9831976818599
0.607225536338
0.7192527993158
0.5500298247386
-0.6870899671108
-0.08713085685628
0.2379283366900591
-0.2610617217367317
0.7627119881838
0.387444707236
-0.8725426816617
0.34504575982876
-0.9974157512048
-0.9825477413464
0.43926557829491
0.039658404272727
-0.37025206376199
0.10437702333314
-0.97482362757
-0.7938954172061
0.9043652843741
0.7322623915372
-0.0701206218013
-0.4422190351855
-0.720477127673
-0.16915030641915
-0.4697684933097178
0.0377341194559335
-0.790983760485127
-0.74006475003716
-0.0907598715806072
-0.999880037943995
0.2280024467967412
0.417743664152995
-0.665556663169858
0.671379150833716
0.2532163602856109
0.123030908794189
0.4337964978602879
0.224390734118625
-0.989959558339759
0.254086289265363
0.577264216671852
0.805536549096654
-0.586045883484676
0.750049647036333
0.0508696100402
-0.14949781909976
-0.58206262319
0.221494676546
0.4777896403314
0.9874281239
0.81403785572927
0.1120673149122108
0.2757412398743
0.996976227995247
-0.892317963597546
-0.351224375661745
0.1633768476710005
0.927262738434235
0.336093070612692
-0.894924919972128
-0.0649923922750051
1.088234832903774
0.933889118338132
0.54920643954378
-0.886664683415532
-0.745613610713621
-0.396828294923216
-0.690818259830522
1.015383723720815
-0.760179848986633
0.1452175698425837
-0.802428382613529
0.473228674832347
0.02700452298397038
0.30214872007
-0.13421947280751
-0.12143604497276
0.039058160010163
-0.4681851622301471
0.982683863119717
0.2394024461955295
-0.9534945266058
0.690259711508504
-0.9190665742895
-0.631791242192443
-0.4556495270664076
1.110537896255941
0.2633587000963068
-0.137525080579942
-0.1546472691935126
0.441366893875934
0.889576493782934
0.81123277874472
0.4500188979724177
0.865496697650577
1.170506769065597
-0.926549477580065
-0.3575531700460529
0.2849068202181568
-0.0784769861864547
0.509428653446511
-0.102136887143817
0.557144174915465
0.8122012409
-0.5310726029606
0.585358350312408
0.751965637729915
-0.862715065887664
0.371477942715858
0.21458707857447
0.902027030734374
0.57681791063938
0.66348283952681
0.174875937503922
-0.02553923812503686
0.48144209640299
0.0854670976707452
0.3432093096451052
0.42377194817959
0.567866989663241
-1.088608643380826
0.637788777706866
-0.429894840126127
-0.113121158163935
-0.01227810751287967
0.4534319590345564
-0.1229766415089587
-0.0688577478657263
-0.603860991849168
0.88286654690768
0.269317356621555
0.97087022758
-0.8796979207934
0.74040188306
-0.694963847993437
0.0170726807212354
-0.509944243267747
0.726696418006262
-0.0995191412980237
0.4355300721443187
-0.50019100743204
-0.3081013727843461
-0.1690699690751671
0.690247098837124
-0.14859323634726
0.85961349956415
0.528970934591339
-0.753765616912188
-0.866624496551412
0.07474735730454
-0.7397806280787
-0.894984819447566
-0.1637929486887878
-1.28345344302273
-1.061882723668498
-1.28939388768309
-0.2170600053627529
0.817704466890441
-0.791619831544199
0.65576004939122
0.44922144004211
0.689425164850223
-0.593597729370449
0.02523837284108764
-0.624626200822614
-0.04669578411389374
-0.767585085493288
0.2497039546698946
-1.103086339255423
-0.2593703213027357
-0.1323830928241146
0.507195553126998
0.22531218418862
-0.816175272819693
-1.01385088116779
-0.374084990256708
0.0819939591992495
-0.410441694806267
-0.2672781777152596
-0.381185924926254
-0.404359089132373
-1.35297428006409
-0.390001647482753
-1.939177076982845
-1.156229310714923
-0.959700335989539
-0.3242488905156123
-0.38427088956903
0.58435242119
0.132868769827242
0.711043910866419
0.098506205584647
0.847597828496141
-0.440722659967257
0.76185935223182
-0.1893423629252178
-0.755665442498632
-0.605576700111773
-0.99991753824826
-0.730314034423622
-1.81437352990298
-0.639115716319699
0.948262573501772
-0.2832575215078695
-0.4711514320920698
-0.1810540992559799
-0.417698811355756
-1.459008659857638
-0.228589264019167
-0.2368463322947192
-0.2211381053409905
-2.676380225076845
-1.748051283775613
-1.167496361110608
-0.676121969006482
-0.716813634210436
-0.922024395893916
0.1586377794485736
0.4325812548594591
0.839374436496501
-0.2271466536877904
0.3332060909887872
0.2006315543054365
0.867093471716441
0.616715646890836
0.790459425521742
0.03514546756605129
-1.035773583512371
-0.900057932176967
0.67787937710815
-0.0902207088137622
-0.139206970500463
-2.159445820071192
-0.489694972639709
0.200561133040964
0.785786478191388
-1.501110846995822
1.296280361870459
-1.530483871557487
-2.854274679302227
-2.784865057910532
-1.506463018887084
-0.552716629115689
-0.0087005390017929
-0.546842677225888
-0.08364580422923
0.598044289951129
0.649292824813814
-0.3939683918964851
0.32035266553624
0.623250443700277
1.085418890079161
0.920053590561078
0.164528253986209
0.3308498376240708
-0.090281133825356
-0.446419044162639
0.3903606486972028
-1.859084665857181
-0.57303064658853
0.171864862859517
0.763999375401172
0.1415887832519618
-0.4165013371626
-1.015530169765321
-0.1246219642123108
-1.167187740433947
-1.32864827571623
-2.237737498399622
-1.696404311128838
0.29123538291577
-1.03585198466778
-0.781306639296184
0.0511105027770466
0.0621319182811559
-1.047099654571826
0.718259615528573
1.223450950845007
0.774083354570043
-0.1152139802309624
-0.721953027492324
0.3370992837081576
0.267590790088687
-1.509148600545525
-2.16383016800292
-3.672441682542327
-1.897433898117601
-0.587726475785233
0.0429541107011836
1.554736478661058
0.00214419178240953
0.6090737834175
0.7670776543575
1.111282010901836
1.37682749632289
-1.688921376836499
-0.886905627367448
-1.764745460468127
0.00817258551172628
0.1592670348565229
0.794661175456694
-0.498584867621067
0.128320180860997
0.614635171647463
0.0874125441492265
0.1349476077031
-0.648809724886758
-0.62070719227415
0.67849600182327
0.3523797942635598
-1.122320496954213
-1.7086323587439
-2.656869959026751
-2.83189801538242
0.316771482788508
2.5108553765441
2.487212460405638
1.213700240012162
0.81946867881803
2.86279015942794
3.4906852491305
3.16961841985055
0.816642949993941
1.189308292629258
-0.89814431515067
-0.378546527678967
-0.622209253280692
0.557633231958069
-0.578751397692775
0.33715811890511
0.637011215671259
-0.848057334428376
0.586552783357983
-0.435082108207102
-0.298839039602891
-0.542837596430755
-0.3646815010196171
0.3130842159182166
-1.232915376890829
-2.208796277880056
-2.038499204644126
1.004050529621946
2.052536300199932
2.74839270588857
2.360161010305297
2.28234706311334
3.186495514217585
3.325902618129972
2.78878926245199
2.68798235622244
0.99668370350116
-0.2967059959190364
1.198122666259823
0.4164409041014573
0.1130973723241649
-0.259504609870769
0.1186922108939548
-0.0735388760538287
-0.03294758936341
-0.981773225792089
-0.670490254395924
-0.3051723278862076
-0.1477909392966087
-1.006645578428501
-0.70161074976242
-2.19763061064101
-2.448275911054889
-1.793920745012527
0.54286344009128
2.965780295650709
4.0468145439448
3.001955241123568
1.772903406250377
1.544022593252531
1.88884214962043
2.48446723304007
2.024482821579445
1.30112340594756
0.3487737261607181
-0.938739955138016
-0.81495546896282
0.063883182727129
-0.518269364562232
-0.547128209603274
0.39473729302649
0.914414883329378
0.4234234556518066
0.23570282467062
-0.145901074925818
0.603183530669428
-0.69251249563833
-1.534645062656101
-1.793375057688601
-2.11780869003222
-2.06464161396638
-0.00408483684084389
1.19112632311823
1.594612445952626
2.72101592812031
3.577615878320109
2.577783234015
2.83503803686935
0.978275875729477
-0.2321888379063064
-1.223200247206984
0.4014461994902805
-0.539558543448311
-0.29733333867669
-0.237142124448752
0.2628061874182348
-0.595280896152512
0.650231464659878
0.4422517961532
-0.008139757517692
-0.86922707994576
0.930388957306068
0.77345498275949
-0.398141517766492
-0.279561131044468
0.656302274470427
-1.11518286688148
0.4110615793838146
0.3471743837949826
0.75625402874113
1.940895749745989
2.3705080655871
0.958910329249086
1.25474873778642
1.92963471279009
2.254930283983417
1.26191063786561
-1.797565700822385
-2.314041328044487
-0.565961951572259
-0.677282387948812
-1.17930199310821
-0.962299531985885
-0.682476536784352
0.6338417556269
0.1473777093488706
0.5654094507689
-0.995989945560877
0.931302037250333
1.105345434667523
-0.39705318034328
1.0582628395037
0.1652254289464399
1.632884199117644
1.47564803404275
2.14576660598053
0.18831728295735
1.034385455728528
1.58757217003582
3.64619992961453
2.744323051591497
1.769132616773539
1.233715495037336
1.662656699932178
0.232286543776619
-1.95118968008501
-2.15657624142609
-1.781579629343949
-2.17366002010513
-1.18825003322207
-1.409514612420067
-0.259693079819722
0.0554887429608385
0.689264074505733
0.613304871301
0.468509530633197
0.366490003854959
0.487429318776847
0.586585609505654
-0.743517172122002
-0.69309229039073
1.448506539236238
3.189583361855113
2.870575490811185
1.413830243138419
2.340058843077055
3.09170753333908
3.34792621950294
2.977704982573607
0.712766628041555
0.359866140084501
-0.991969446242172
-1.01874624840189
-1.341902830482964
-2.62875581474828
-1.63166048959041
-1.31067200147607
0.1582378167714895
1.028202443038136
-0.1800228563222742
0.675793166030014
0.661182368635965
0.968486072564267
-0.964082018782185
0.01171191217190702
0.6234242601762
-0.134127915667793
-0.416536964371156
-1.725138383983468
-0.792809313475691
0.647934402372919
3.90546147520587
2.196482393919053
3.384333953536372
2.393800172936436
2.0307636408717
1.3782459975234
1.27218576315731
-0.3518290617343261
-0.73044071426629
-1.902786054281309
-1.706574084044041
-1.983469922331025
-0.858705069823908
-0.0460869243898519
0.588405669504151
1.08403122030166
-0.261124763877532
-0.4273155916621
0.794593663624737
-0.476066840593
0.804365511169219
-0.972577187795206
-0.640437029452246
-0.644325380321453
-0.36503235886802
-1.380754429671921
-3.00525820937878
-1.016813072221217
-0.4342761605829993
0.535682577648506
0.74518902718912
0.869956249773013
-1.352100781020697
-0.904714168942253
-1.441339114670843
-1.47311937251234
-1.529070646371329
-0.4848356099154721
-0.637774794497298
-0.1205504492097674
0.1580565764659311
-1.168454671075893
-0.0162988633417169
0.2220109381583681
-0.339449686120333
1.016952786012651
-0.528819849601928
-0.25156212657569
-0.770452467739963
-0.4178718342213333
-0.616307676674656
0.712417298093473
-0.1338844794311561
-0.498838529629443
-0.645936820417216
-1.83370266708182
-0.86017626053111
-2.23440077518705
-2.041785288471268
-1.611763507820873
-1.93174236643997
-0.987018594704318
0.1876988378864469
-0.437595503327068
-0.388232493071762
0.550884246270396
0.3684609975277639
-0.627416566335041
-0.1316621138098372
-0.0751070728116572
-0.270105024450048
-0.618680153182122
1.02871120083459
-0.145148678989838
-0.997148006387708
0.604913237916559
-0.57220108250473
0.536945728026017
-0.3225859601611087
0.4076569523426527
0.592272720003791
-0.584740756667562
-0.0821827443617801
-0.24613010475253
-0.466594465433989
-2.024372179009225
-0.781912002802152
-0.0092986839101976
-0.228102687768083
0.362834392981596
-0.698409079109989
0.549785112359532
-0.694756820380791
-0.85599599239321
-0.539875389171846
0.286891442988737
-0.767058485857226
0.956348281229591
-0.0214450991023957
-0.899320228834142
0.649069414768111
0.2114430300915203
0.6328608983968
0.752269688691929
-0.3645230474802501
-0.50723876235922
-0.297784138808765
0.2910844197868724
-0.1391488087837151
0.799135728522274
1.083180669206769
-0.1845544812259281
-0.26316856183091
0.9580639420147
0.4430931681009983
-0.3643427823284353
-0.4693240118134212
-0.722614840371387
0.0298522467560653
-0.50290853739425
0.1276979814336537
0.692664402919999
0.376249213377808
-1.389453818389578
-0.932647235319223
0.376449908655458
-0.2154998033305894
0.389712680071833
-0.442318609602573
0.468107336758256
0.699912768058389
-0.748294806101
-0.3864275731321
-0.352078231321853
0.55947095241494
-0.315695940380051
0.1809305648327374
-0.4505679071355737
0.155068633751285
-0.3983294883449998
-0.536480936925041
-1.662494825579888
-0.606443711553622
-0.1539245073906988
-1.133792108152313
-1.242417204276508
0.1534700485652366
-0.494177178577168
0.518295392781962
0.2083028308940886
0.856891462362517
0.873167254362772
1.088972691822109
0.0623099971918597
-0.674886669181207
0.40525190834772
-0.42898855468546
-0.1330624626448355
-0.080737297371
-0.6981844949652
-0.4507978214982
-0.790291267845539
0.756666516565483
0.600197985327184
-0.01564433774558938
-0.51802325663968
0.4228459223352879
0.516369393426714
-0.74571118765723
0.3316378867829599
-0.572635531379054
0.569034457872813
-0.907318579785165
0.0417952682105734
-0.1025962511509509
0.4839493677879
0.552272107305386
-0.830085718103624
0.476753537789122
-0.58686845275767
-0.163720562368462
0.791017057065783
0.451203350387301
0.590035022000262
-0.1778676813756996
-0.52925183255478
0.3412793808396
0.4070041020833
0.3479523769534
0.597454516607824
0.708357876488224
-0.760379083483537
-0.4857544018950074
0.4133507770482247
-0.524964264740328
-0.459346654830559
-0.903681274301446
-0.299672743358898
-0.393504933643078
-1.35926415871912
0.01803615081731927
0.03620872063108812
-0.2551464449817966
1.124908428267624
0.756161690741689
0.729155888439804
0.255296989312289
0.804840692018687
-0.408897201281901
0.727931504471612
0.676039236461981
-0.644167937907217
-0.194582030543437
-0.28573165383683
0.43463221347376
-0.8999368776467
0.9184179010057
-0.004696523806702
0.22147658852184
0.0497394967111715
-0.61237977457335
0.191010708705122
-0.478807476902558
-0.0615396935414328
-0.000495532233137016
-0.701067819411147
-0.206587072882456
0.0661000220720045
-0.956001933982127
-0.00417127186090485
0.2044367565787337
0.03132659043031202
0.4457210629877
-0.543561863341834
-1.027507095267549
-0.3959069001057418
-0.003861135109974815
-0.873695554680979
-0.778374659625749
0.791229222048467
0.1914485624624595
0.7802981599533
0.43062059179152
-0.591609955164
-0.7312058529327
0.5706336647169
-0.6064823310819
0.27179522988329
0.91140035311201
0.975912354280035
0.1006158299206516
0.4155575780231533
-0.96062174453916
-0.131917564294734
-0.3194264237482055
-0.281893700712628
-0.161511030690624
0.0843820224943968
-0.970289225895629
0.471645382150592
-0.1863512213897374
-0.489949683730179
0.64618388642475
-0.33143653977367
-0.00931396101780257
-0.1302132750688012
-0.279144488352488
0.025960478374533
0.05180337635592
-0.7323071223198
-0.918530863766
-8.4789472845241
0.53442514916
0.12205415448793
0.521981974388
0.7899638133118
-0.885664598001
0.2298501569222
-0.19082672892327
-0.08857854087487
-0.4075322428507
-0.418133938627
0.2210125307622
0.8364933197514
0.92135033990438
-0.55510287803991
-0.3234916959820668
-0.313747824367
-0.865224609873
-0.01921694960132
0.18379403433502
-0.9241831518396
0.09112802055746
-0.8502015564132
-0.5918111828858
0.10952914788455
0.835098708164
-0.5761717146577
0.271725486334
0.3908187729473
-0.9738852452421
-0.74224324968
-0.2364690028671
0.5732608886206
0.625094673838847
0.301444868437236
-0.13045210342152
0.524198050198474
-0.02268409044903556
0.586406293053069
0.94642170165382
0.707983318356409
-0.689555036981758
-0.623895167428267
-0.2766606727306
-0.0938620679439855
-0.1561695731397206
0.910631273387622
0.15849280052683
-0.909745997767622
0.282690948495696
-0.591629750113456
0.980819498000435
-0.68431322493277
-0.057574887849542
-0.07324308745609
0.7601372609364
-0.6577237577896
0.314033140496
-0.7716975269527
0.1931666326856214
-0.342067618375582
-0.1102783825450849
0.605484517656047
0.4535726910368379
-0.693267965549089
-0.457176071774709
0.254652448004169
0.942074532645569
-0.0887945838087019
0.792606703192934
1.45740437030968
1.79438184775238
0.649690340619459
0.2100396403656274
-0.096820059561173
1.094088341120687
-0.2381277052402934
-0.625581490615243
-0.2006628788383816
0.439498765626174
-0.909983914151662
0.648642975177545
0.715837663357259
0.212885906814
0.6765272598266
0.36694092120063
-0.9334716159496
-0.581195676858087
-0.908732300919285
0.678112962905415
0.2361834206192521
0.341120806031707
0.948285534008454
0.792513852054056
1.522061693754732
0.463058242635753
1.756676752778079
0.980849857876742
1.946588584595247
0.718931941615775
1.742650154889312
1.881363959181003
1.551872115429727
0.667716493234089
0.463266881104084
0.03080505996458299
0.769130601811823
0.095545587946311
-0.520255744348448
-0.2529140189982132
-0.3507519959513288
-0.1470044919448496
-0.13666763270041
-0.44473499507836
-0.52555458490933
-0.398112832788411
0.707452559851515
-0.71537631604838
0.0930766896083812
-0.702367175042126
0.86472255553703
-0.180479772275478
0.724714970553195
0.2134766374878397
-0.193077003685538
-0.2095650147163309
-1.061858036987987
-0.000146143529664606
-0.284038808229859
-0.544682836411812
-0.888540445236289
-0.981580079434659
0.23808123739162
0.7267397150796518
-0.3163397627423029
-0.3827436881530303
-0.1231064414911395
-1.045980877386743
-0.02504195041768259
-0.0816824889023887
-0.757059308218
0.9501796046058
-0.840538722791
-0.509762993527488
-0.638902883772694
-0.868773922382197
-0.93852623999982
-0.3037037887979255
1.270248587084135
0.0332012002386949
0.4564747989057031
-0.466374611554818
-0.516641124697912
0.251889451907852
0.966681667109108
0.37917751355231
-0.502532688930603
0.107444410281799
-0.4482118997869135
0.6237664591853
0.574013360520447
0.43650038599471574
0.42834562205057547
-1.7544406552542706
-1.222205581975658
-1.460582376291682
-1.08026332378577
-0.1668801702396293
0.278843852960054
0.1297674968903
-0.802727430165095
0.58324555945084
0.88603824482453
0.547753899421231
-0.34631691614461
1.25263314777131
-0.533618213945574
-0.4048457814343654
-1.326282645168269
-0.968657166763787
-1.09477771722167
0.4531523131699447
-0.1280351725272953
0.101922329962502
-0.1600284533322969
-0.0376223954209865
0.4064567979233918
0.2938877910527744
-0.16348963558790325
-1.2896739874786791
-1.1523562798624571
-2.2505384842176985
-3.086119518144583
-2.46745341678089
-0.794606802077462
0.275759152174
0.86362236663092
0.8078287853888
0.350915034472473
0.492868280200094
-0.4395418877406029
-0.715785496308665
-0.4908415706729606
0.433385215214824
-0.70422456792458
-0.0861456415695828
-1.056584366036027
-0.02016164216541516
0.1918117162048103
-0.185752420294333
-0.3489159595560762
0.65029634021963
-0.0113066698111864
-0.1697858993126746
-1.2326815420810062
0.47283081737747973
-0.4083081639433751
-2.1844057229834113
-1.1840157623313043
-0.2914379464173504
-2.223700883845059
-2.93584881769418
-0.857062697342156
0.55318350921151
0.941493221987804
-0.929323391061094
-0.857092216309441
-0.336402770701806
-0.887701688211703
0.1211745970766726
-0.534147648294587
0.2247767019500429
-1.03231160518829
-0.485350223902153
-0.519436645340654
-0.0879538291031564
-0.0663751091825937
-0.4273509976868939
0.0797003521803274
1.199128206949746
0.766044845767599
1.0208222246496204
-0.5193027542142532
-0.503142396286716
-0.18792328855490456
-0.7742429676845483
-0.4768942171365919
-1.391183212185615
-2.085658001423319
-3.07361347519966
-1.746384780103341
-0.188241012431941
0.641461296247261
-0.737124954409533
-0.723868009613886
-0.98829499540191
-0.622724123915475
0.00386427204456711
-0.259577600493202
-1.409486583532442
-1.09367989060158
-0.0612669876831974
-0.683904398977322
0.787113914795924
-0.067623853245967
0.987233099755865
0.04182050289758837
1.307417785043502
0.10107170199559276
0.47901607206171387
-0.891124298274991
-0.915506865704118
-0.5475711702855237
0.03435473706897284
-0.0766624045896416
-1.656864255181627
-0.259865718740679
-2.707671586795491
-2.138912817552566
-1.210185992301867
0.2772949196111774
0.785115120187944
-0.3325261189115046
0.886539051883482
0.344902971646001
-0.1244008703756966
0.49281573089555
-1.94367475628906
-1.107827926515082
-0.775072265804146
-0.770288580247405
-1.376652169982683
-0.588063744974473
-0.283508577355201
0.2035520990891253
0.4296680577222074
0.6583888406585001
-0.06055983103817152
-0.9374131337187017
0.22690677650904506
-0.8815017428985862
-1.010242919788432
-0.72883716914902
-0.3726133212851277
-0.2022978926282224
0.2267160232492807
-1.447240285533542
-0.681687425878926
-0.730807458667739
-0.627288074498664
0.02613723314842487
0.261609513921943
-0.970082029728729
-0.407883175335967
-0.2277652068043235
-2.494444105667053
-1.681435295815689
-0.8011139367574
-0.895624986758239
-2.86387039857175
-1.98572914856174
-1.92437392473955
-1.842400043866822
-3.253359099552208
-2.2548134598971683
-0.754119820282403
-0.7349455836332496
-0.3069114281906471
1.00529089256041
-0.41696001830987
0.319966723639476
1.268584181551446
1.078479795151937
0.881340096992307
-0.0836252629196226
0.323153764165872
-0.911428509335867
0.892280881441082
-0.4785947796306093
0.798974800237929
0.925978691317325
-1.36106481937574
-0.3767533464479968
-1.602856512566151
-2.64197155807547
-1.677334781692669
-2.759637421833513
-2.66074474583088
-1.290177339700832
-1.2889976194293622
-1.873388021577916
-3.867937540760663
-2.2994225411587723
-2.0376251175691684
-0.8266459580047011
-1.25893220172491
-1.04015454656241
-0.325682845472192
1.538942206949204
2.03593076506291
1.282099077786329
1.625666236958334
0.870827630160773
-0.835206558918262
-0.701543855989432
0.32437092110504
0.546662658683528
0.835386229073541
-0.0282062363602105
0.04271281233096612
-0.738147097001005
-0.413612390137835
-0.2376424971248077
-1.182925539799975
-0.92428417056819
-1.401648456160411
-1.134017013370225
-0.6679062969691156
-1.984864149964223
-1.918331532567308
-2.941175693358505
-2.0760180022989845
-1.96881122313382
-0.629410187286694
0.02627764914796152
0.4644142288928227
0.905955308948481
1.772808778677362
2.354286724134009
1.25178729732162
0.520444765323753
-0.32677345902592
0.2370567345086069
-0.10043932428975
-0.859103137948808
0.0701367733618901
-0.490520648820025
-0.1022509363272968
-0.1423244307611411
1.330538356202722
0.641145987934813
0.710278905631064
0.855113508465673
0.968809659265955
0.07284666147993835
-1.0582168683492015
-1.901499923731656
-1.425580837877434
-1.9608462196396768
-0.9469362476371717
-1.559663789741454
-1.694353730085309
-0.4025045713575
1.22456936445774
0.46325887435167
1.305839287052966
1.234871885616687
1.373730682372867
1.15246883384163
-0.299688562396731
0.0707258727427722
-0.2050558639519
-0.19756415505109
-0.220916244090923
0.958966353734724
0.276466629904572
1.35315685118278
2.4413452878369
2.30420283254032
2.220294667456178
0.585954444578383
1.65339034517733
-0.408368866120004
